<PMML version="4.2" xmlns="http://www.dmg.org/PMML-4_2" xmlns:xsi="http://www.w3.org/2001/XMLSchema-instance" xsi:schemaLocation="http://www.dmg.org/PMML-4_2 http://www.dmg.org/v4-2/pmml-4-2.xsd">
 <Header copyright="Copyright (c) 2016 mtuna" description="CVDPoRT male PMML Model">
  <Extension name="user" value="mtuna" extender="COXPH"/>
  <Application name="COXPH" version="1.4"/>
  <Timestamp>2016-05-17 11:10:34</Timestamp>
 </Header>
 <DataDictionary numberOfFields="37">
  <DataField name="survival" optype="continuous" dataType="double"/>
  <DataField name="age_rscc" optype="continuous" dataType="double"/>
  <DataField name="age_rcs1" optype="continuous" dataType="double"/>
  <DataField name="age_rcs2" optype="continuous" dataType="double"/>
  <DataField name="age_rcs3" optype="continuous" dataType="double"/>
  <DataField name="packyears_rscc" optype="continuous" dataType="double"/>
  <DataField name="packyears_rcs1" optype="continuous" dataType="double"/>
  <DataField name="FormerSmoker_mt_5" optype="continuous" dataType="double"/>
  <DataField name="FormerSmoker_in_5" optype="continuous" dataType="double"/>
  <DataField name="Smoker" optype="continuous" dataType="double"/>
  <DataField name="age_packyears_int" optype="continuous" dataType="double"/>
  <DataField name="age_FormerSmoker_mt_5_int" optype="continuous" dataType="double"/>
  <DataField name="age_FormerSmoker_in_5_int" optype="continuous" dataType="double"/>
  <DataField name="age_Smoker_int" optype="continuous" dataType="double"/>
  <DataField name="Drinks_last_week_rcsc" optype="continuous" dataType="double"/>
  <DataField name="Drinks_last_week_rcs1" optype="continuous" dataType="double"/>
  <DataField name="age_Drinks_last_week_int" optype="continuous" dataType="double"/>
  <DataField name="Diet_fruit_veg" optype="continuous" dataType="double"/>
  <DataField name="Diet2_Potato" optype="continuous" dataType="double"/>
  <DataField name="age_Diet_fruit_veg_int" optype="continuous" dataType="double"/>
  <DataField name="age_Diet2_Potato_int" optype="continuous" dataType="double"/>
  <DataField name="age_diet3_int" optype="continuous" dataType="double"/>
  <DataField name="bmi" optype="continuous" dataType="double"/>
  <DataField name="bmi_rcs1" optype="continuous" dataType="double"/>
  <DataField name="secondaryschoolgrad" optype="continuous" dataType="double"/>
  <DataField name="somepostsecondayed" optype="continuous" dataType="double"/>
  <DataField name="postsecondarygrad" optype="continuous" dataType="double"/>
  <DataField name="age_bmi_int" optype="continuous" dataType="double"/>
  <DataField name="diabetes" optype="continuous" dataType="double"/>
  <DataField name="age_diabetes_int" optype="continuous" dataType="double"/>
  <DataField name="hypertension" optype="continuous" dataType="double"/>
  <DataField name="age_hypertension_int" optype="continuous" dataType="double"/>
  <DataField name="surveycycle2" optype="continuous" dataType="double"/>
  <DataField name="surveycycle3" optype="continuous" dataType="double"/>
  <DataField name="surveycycle4" optype="continuous" dataType="double"/>
  <DataField name="ttcvd_dec12_year" optype="continuous" dataType="double"/>
  <DataField name="censor_cvd_dec12" optype="continuous" dataType="double"/>
 </DataDictionary>
 <GeneralRegressionModel modelType="CoxRegression" modelName="CVDPoRT_malemodel" functionName="regression" algorithmName="coxph" endTimeVariable="ttcvd_dec12_year" statusVariable="censor_cvd_dec12">
  <MiningSchema>
   <MiningField name="survival" usageType="predicted"/>
   <MiningField name="age_rcsc" usageType="active"/>
   <MiningField name="age_rcs1" usageType="active"/>
   <MiningField name="age_rcs2" usageType="active"/>
   <MiningField name="age_rcs3" usageType="active"/>
   <MiningField name="packyears_rscc" usageType="active"/>
   <MiningField name="packyears_rcs1" usageType="active"/>
   <MiningField name="FormerSmoker_mt_5" usageType="active"/>
   <MiningField name="FormerSmoker_in_5" usageType="active"/>
   <MiningField name="Smoker" usageType="active"/>
   <MiningField name="age_packyears_int" usageType="active"/>
   <MiningField name="age_FormerSmoker_mt_5_int" usageType="active"/>
   <MiningField name="age_FormerSmoker_in_5_int" usageType="active"/>
   <MiningField name="age_smoker_int" usageType="active"/>
   <MiningField name="Drinks_last_week_rcsc" usageType="active"/>
   <MiningField name="Drinks_last_week_rcs1" usageType="active"/>
   <MiningField name="age_Drinks_last_week_int" usageType="active"/>
   <MiningField name="Diet_fruit_veg" usageType="active"/>
   <MiningField name="Diet2_Potato" usageType="active"/>
   <MiningField name="age_Diet_fruit_veg_int" usageType="active"/>
   <MiningField name="age_Diet2_Potato_int" usageType="active"/>
   <MiningField name="age_diet3_int" usageType="active"/>
   <MiningField name="bmi" usageType="active"/>
   <MiningField name="bmi_rcs1" usageType="active"/>
   <MiningField name="secondaryschoolgrad" usageType="active"/>
   <MiningField name="somepostsecondayed" usageType="active"/>
   <MiningField name="postsecondarygrad" usageType="active"/>
   <MiningField name="age_bmi_int" usageType="active"/>
   <MiningField name="diabetes" usageType="active"/>
   <MiningField name="age_diabetes_int" usageType="active"/>
   <MiningField name="hypertension" usageType="active"/>
   <MiningField name="age_hypertension_int" usageType="active"/>
   <MiningField name="surveycycle2" usageType="active"/>
   <MiningField name="surveycycle3" usageType="active"/>
   <MiningField name="surveycycle4" usageType="active"/>
   <MiningField name="ttcvd_dec12_year" usageType="active"/>
   <MiningField name="censor_cvd_dec12" usageType="active"/>
  </MiningSchema>
  <Output>
   <OutputField name="Predicted_survival" feature="predictedValue"/>
   <OutputField name="cumulativeHazard" feature="transformedValue">
    <Apply function="*">
     <Constant>-1.0</Constant>
     <Apply function="ln">
      <FieldRef field="Predicted_survival"/>
     </Apply>
    </Apply>
   </OutputField>
  </Output>
  <ParameterList>
   <Parameter name="p0" label="age_rcsc" referencePoint="-0.77690140762885"/>
   <Parameter name="p1" label="age_rcs1" referencePoint="11.1881965917102"/>
   <Parameter name="p2" label="age_rcs2" referencePoint="3.54283070612868"/>
   <Parameter name="p3" label="age_rcs3" referencePoint="1.04989625512388"/>
   <Parameter name="p4" label="packyears_rscc" referencePoint="12.6993188414071"/>
   <Parameter name="p5" label="packyears_rcs1" referencePoint="1.60326232564598"/>
   <Parameter name="p6" label="FormerSmoker_mt_5" referencePoint="-0.0400165216190034"/>
   <Parameter name="p7" label="FormerSmoker_in_5" referencePoint="0.00676346085613837"/>
   <Parameter name="p8" label="Smoker" referencePoint="0.0135396687223035"/>
   <Parameter name="p9" label="age_packyears_int" referencePoint="108.758905893404"/>
   <Parameter name="p10" label="age_FS_mt_5_int" referencePoint="2.39420183309556"/>
   <Parameter name="p11" label="age_FormerSmoker_in_5_int" referencePoint="-0.32286643311178"/>
   <Parameter name="p12" label="age_smoker_int" referencePoint="-1.28427371891394"/>
   <Parameter name="p13" label="Drinks_last_week_rcsc" referencePoint="5.80013711151737"/>
   <Parameter name="p14" label="Drinks_last_week_rcs1" referencePoint="1.2029952975034"/>
   <Parameter name="p15" label="age_Drinks_last_week_int" referencePoint="-11.0636229862067"/>
   <Parameter name="p16" label="Diet_fruit_veg" referencePoint="0.873742371451745"/>
   <Parameter name="p17" label="Diet2_Potato" referencePoint="0.0848876870471791"/>
   <Parameter name="p18" label="age_Diet_fruit_veg_int" referencePoint="3.0451363100911"/>
   <Parameter name="p19" label="age_Diet2_Potato_int" referencePoint="1.36677596435316"/>
   <Parameter name="p20" label="age_diet3_int" referencePoint="-1.6629541022651"/>
   <Parameter name="p21" label="bmi" referencePoint="-0.029280469849084"/>
   <Parameter name="p22" label="bmi_rcs1" referencePoint="2.31982541162191"/>
   <Parameter name="p23" label="secondaryschoolgrad" referencePoint="-0.000423829979592964"/>
   <Parameter name="p24" label="somepostsecondayed" referencePoint="0.00123801155971376"/>
   <Parameter name="p25" label="postsecondarygrad" referencePoint="0.0073483854264639"/>
   <Parameter name="p26" label="age_bmi_int" referencePoint="3.50574140260339"/>
   <Parameter name="p27" label="diabetes" referencePoint="-0.00283029875116098"/>
   <Parameter name="p28" label="age_diabetes_int" referencePoint="0.819476480902799"/>
   <Parameter name="p29" label="hypertension" referencePoint="-0.0048386158958178"/>
   <Parameter name="p30" label="age_hypertension_int" referencePoint="1.99591396116253"/>
   <Parameter name="p31" label="surveycycle2" referencePoint="0.0150637006026822"/>
   <Parameter name="p32" label="surveycycle3" referencePoint="0.0153338905757845"/>
   <Parameter name="p33" label="surveycycle4" referencePoint="0.0148452597067244"/>
  </ParameterList>
  <FactorList/>
  <CovariateList>
   <Predictor name="age_rcsc"/>
   <Predictor name="age_rcs1"/>
   <Predictor name="age_rcs2"/>
   <Predictor name="age_rcs3"/>
   <Predictor name="packyears_rscc"/>
   <Predictor name="packyears_rcs1"/>
   <Predictor name="FormerSmoker_mt_5"/>
   <Predictor name="FormerSmoker_in_5"/>
   <Predictor name="Smoker"/>
   <Predictor name="age_packyears_int"/>
   <Predictor name="age_FS_mt_5_int"/>
   <Predictor name="age_FormerSmoker_in_5_int"/>
   <Predictor name="age_smoker_int"/>
   <Predictor name="Drinks_last_week_rcsc"/>
   <Predictor name="Drinks_last_week_rcs1"/>
   <Predictor name="age_Drinks_last_week_int"/>
   <Predictor name="Diet_fruit_veg"/>
   <Predictor name="Diet2_Potato"/>
   <Predictor name="age_Diet_fruit_veg_int"/>
   <Predictor name="age_Diet2_Potato_int"/>
   <Predictor name="age_diet3_int"/>
   <Predictor name="bmi"/>
   <Predictor name="bmi_rcs1"/>
   <Predictor name="secondaryschoolgrad"/>
   <Predictor name="somepostsecondayed"/>
   <Predictor name="postsecondarygrad"/>
   <Predictor name="age_bmi_int"/>
   <Predictor name="diabetes"/>
   <Predictor name="age_diabetes_int"/>
   <Predictor name="hypertension"/>
   <Predictor name="age_hypertension_int"/>
   <Predictor name="surveycycle2"/>
   <Predictor name="surveycycle3"/>
   <Predictor name="surveycycle4"/>
  </CovariateList>
  <PPMatrix>
   <PPCell value="1" predictorName="age_rcsc" parameterName="p0"/>
   <PPCell value="1" predictorName="age_rcs1" parameterName="p1"/>
   <PPCell value="1" predictorName="age_rcs2" parameterName="p2"/>
   <PPCell value="1" predictorName="age_rcs3" parameterName="p3"/>
   <PPCell value="1" predictorName="packyears_rscc" parameterName="p4"/>
   <PPCell value="1" predictorName="packyears_rscc" parameterName="p5"/>
   <PPCell value="1" predictorName="packyears_rcs1" parameterName="p5"/>
   <PPCell value="1" predictorName="FormerSmoker_mt_5" parameterName="p6"/>
   <PPCell value="1" predictorName="Smoker" parameterName="p6"/>
   <PPCell value="1" predictorName="FormerSmoker_in_5" parameterName="p7"/>
   <PPCell value="1" predictorName="Smoker" parameterName="p7"/>
   <PPCell value="1" predictorName="Smoker" parameterName="p8"/>
   <PPCell value="1" predictorName="packyears_rscc" parameterName="p9"/>
   <PPCell value="1" predictorName="age_packyears_int" parameterName="p9"/>
   <PPCell value="1" predictorName="age_FS_mt_5_int" parameterName="p10"/>
   <PPCell value="1" predictorName="age_FormerSmoker_in_5_int" parameterName="p11"/>
   <PPCell value="1" predictorName="age_smoker_int" parameterName="p12"/>
   <PPCell value="1" predictorName="Drinks_last_week_rcsc" parameterName="p13"/>
   <PPCell value="1" predictorName="Drinks_last_week_rcsc" parameterName="p14"/>
   <PPCell value="1" predictorName="Drinks_last_week_rcs1" parameterName="p14"/>
   <PPCell value="1" predictorName="age_Drinks_last_week_int" parameterName="p15"/>
   <PPCell value="1" predictorName="Diet_fruit_veg" parameterName="p16"/>
   <PPCell value="1" predictorName="Diet2_Potato" parameterName="p17"/>
   <PPCell value="1" predictorName="age_Diet_fruit_veg_int" parameterName="p18"/>
   <PPCell value="1" predictorName="age_Diet2_Potato_int" parameterName="p19"/>
   <PPCell value="1" predictorName="age_diet3_int" parameterName="p20"/>
   <PPCell value="1" predictorName="bmi" parameterName="p21"/>
   <PPCell value="1" predictorName="bmi" parameterName="p22"/>
   <PPCell value="1" predictorName="bmi_rcs1" parameterName="p22"/>
   <PPCell value="1" predictorName="secondaryschoolgrad" parameterName="p23"/>
   <PPCell value="1" predictorName="somepostsecondayed" parameterName="p24"/>
   <PPCell value="1" predictorName="postsecondarygrad" parameterName="p25"/>
   <PPCell value="1" predictorName="bmi" parameterName="p26"/>
   <PPCell value="1" predictorName="age_bmi_int" parameterName="p26"/>
   <PPCell value="1" predictorName="diabetes" parameterName="p27"/>
   <PPCell value="1" predictorName="diabetes" parameterName="p28"/>
   <PPCell value="1" predictorName="age_diabetes_int" parameterName="p28"/>
   <PPCell value="1" predictorName="hypertension" parameterName="p29"/>
   <PPCell value="1" predictorName="hypertension" parameterName="p30"/>
   <PPCell value="1" predictorName="age_hypertension_int" parameterName="p30"/>
   <PPCell value="1" predictorName="surveycycle2" parameterName="p31"/>
   <PPCell value="1" predictorName="surveycycle3" parameterName="p32"/>
   <PPCell value="1" predictorName="surveycycle4" parameterName="p33"/>
  </PPMatrix>
  <ParamMatrix>
   <PCell parameterName="p0" df="1" beta="0.173775706727621"/>
   <PCell parameterName="p1" df="1" beta="-0.12844285311135"/>
   <PCell parameterName="p2" df="1" beta="-0.117818390197383"/>
   <PCell parameterName="p3" df="1" beta="0.658949145530581"/>
   <PCell parameterName="p4" df="1" beta="0.00810131699294061"/>
   <PCell parameterName="p5" df="1" beta="-0.0200585199578604"/>
   <PCell parameterName="p6" df="1" beta="0.00874042317200061"/>
   <PCell parameterName="p7" df="1" beta="0.247041427710132"/>
   <PCell parameterName="p8" df="1" beta="0.860221240018083"/>
   <PCell parameterName="p9" df="1" beta="-0.000184774482884247"/>
   <PCell parameterName="p10" df="1" beta="0.00131680382785441"/>
   <PCell parameterName="p11" df="1" beta="-0.00378375586735086"/>
   <PCell parameterName="p12" df="1" beta="-0.0133595696026968"/>
   <PCell parameterName="p13" df="1" beta="-0.0427061134886325"/>
   <PCell parameterName="p14" df="1" beta="0.105316036052134"/>
   <PCell parameterName="p15" df="1" beta="0.00016052451883295"/>
   <PCell parameterName="p16" df="1" beta="-0.048413472409929"/>
   <PCell parameterName="p17" df="1" beta="0.314902731312636"/>
   <PCell parameterName="p18" df="1" beta="-0.000491014256049256"/>
   <PCell parameterName="p19" df="1" beta="-0.00317145282109201"/>
   <PCell parameterName="p20" df="1" beta="-0.000295396319867238"/>
   <PCell parameterName="p21" df="1" beta="0.0760990135823576"/>
   <PCell parameterName="p22" df="1" beta="-0.0485501690047239"/>
   <PCell parameterName="p23" df="1" beta="-0.0580215400483317"/>
   <PCell parameterName="p24" df="1" beta="-0.0604888692285257"/>
   <PCell parameterName="p25" df="1" beta="-0.226108014538938"/>
   <PCell parameterName="p26" df="1" beta="-0.00142123854814395"/>
   <PCell parameterName="p27" df="1" beta="0.505509525051959"/>
   <PCell parameterName="p28" df="1" beta="-0.0117175695636325"/>
   <PCell parameterName="p29" df="1" beta="0.512748042461969"/>
   <PCell parameterName="p30" df="1" beta="-0.0178615644024043"/>
   <PCell parameterName="p31" df="1" beta="-0.0502435820375916"/>
   <PCell parameterName="p32" df="1" beta="-0.0581091019196792"/>
   <PCell parameterName="p33" df="1" beta="-0.308562937795338"/>
  </ParamMatrix>
  <BaseCumHazardTables maxTime="12.320328542">
   <BaselineCell time="0.0054757016" cumHazard="1.46500962990623e-05"/>
   <BaselineCell time="0.0109514031" cumHazard="1.46500962990623e-05"/>
   <BaselineCell time="0.0136892539" cumHazard="1.46500962990623e-05"/>
   <BaselineCell time="0.0191649555" cumHazard="2.19763576016901e-05"/>
   <BaselineCell time="0.0246406571" cumHazard="2.9303934229266e-05"/>
   <BaselineCell time="0.0273785079" cumHazard="2.9303934229266e-05"/>
   <BaselineCell time="0.0410677618" cumHazard="2.9303934229266e-05"/>
   <BaselineCell time="0.0438056126" cumHazard="3.66328719617249e-05"/>
   <BaselineCell time="0.0465434634" cumHazard="5.12916469454126e-05"/>
   <BaselineCell time="0.0492813142" cumHazard="5.8622608666869e-05"/>
   <BaselineCell time="0.052019165" cumHazard="6.59538100454969e-05"/>
   <BaselineCell time="0.0547570157" cumHazard="8.06255963130634e-05"/>
   <BaselineCell time="0.0602327173" cumHazard="9.53007235392374e-05"/>
   <BaselineCell time="0.0629705681" cumHazard="0.000102638911978717"/>
   <BaselineCell time="0.0657084189" cumHazard="0.000109980299138536"/>
   <BaselineCell time="0.0684462697" cumHazard="0.000109980299138536"/>
   <BaselineCell time="0.0739219713" cumHazard="0.000109980299138536"/>
   <BaselineCell time="0.076659822" cumHazard="0.000117322847470104"/>
   <BaselineCell time="0.0848733744" cumHazard="0.000139356057956296"/>
   <BaselineCell time="0.0876112252" cumHazard="0.000146700790607801"/>
   <BaselineCell time="0.090349076" cumHazard="0.000146700790607801"/>
   <BaselineCell time="0.0958247775" cumHazard="0.000146700790607801"/>
   <BaselineCell time="0.0985626283" cumHazard="0.00015404782500615"/>
   <BaselineCell time="0.1013004791" cumHazard="0.000161395667910228"/>
   <BaselineCell time="0.1040383299" cumHazard="0.000176092704758688"/>
   <BaselineCell time="0.1067761807" cumHazard="0.000183441549774539"/>
   <BaselineCell time="0.1149897331" cumHazard="0.000190790541298755"/>
   <BaselineCell time="0.1177275838" cumHazard="0.000190790541298755"/>
   <BaselineCell time="0.1204654346" cumHazard="0.000205491394058843"/>
   <BaselineCell time="0.1232032854" cumHazard="0.000205491394058843"/>
   <BaselineCell time="0.1259411362" cumHazard="0.000212843316255021"/>
   <BaselineCell time="0.128678987" cumHazard="0.000220197285133488"/>
   <BaselineCell time="0.1314168378" cumHazard="0.000234907434229223"/>
   <BaselineCell time="0.1341546886" cumHazard="0.000242263479534008"/>
   <BaselineCell time="0.1368925394" cumHazard="0.000242263479534008"/>
   <BaselineCell time="0.1396303901" cumHazard="0.000256979447855193"/>
   <BaselineCell time="0.1423682409" cumHazard="0.0002643388453095"/>
   <BaselineCell time="0.1451060917" cumHazard="0.0002643388453095"/>
   <BaselineCell time="0.1478439425" cumHazard="0.0002643388453095"/>
   <BaselineCell time="0.1533196441" cumHazard="0.000271699753027726"/>
   <BaselineCell time="0.1587953457" cumHazard="0.000279060834356021"/>
   <BaselineCell time="0.167008898" cumHazard="0.000286422883596877"/>
   <BaselineCell time="0.1752224504" cumHazard="0.000293785255972169"/>
   <BaselineCell time="0.180698152" cumHazard="0.00030114865502987"/>
   <BaselineCell time="0.1834360027" cumHazard="0.00030114865502987"/>
   <BaselineCell time="0.1861738535" cumHazard="0.000308516773092812"/>
   <BaselineCell time="0.1943874059" cumHazard="0.000315885996149068"/>
   <BaselineCell time="0.1971252567" cumHazard="0.000323256115254786"/>
   <BaselineCell time="0.1998631075" cumHazard="0.000323256115254786"/>
   <BaselineCell time="0.2026009582" cumHazard="0.000323256115254786"/>
   <BaselineCell time="0.2108145106" cumHazard="0.000330627299851905"/>
   <BaselineCell time="0.2135523614" cumHazard="0.000338001128416587"/>
   <BaselineCell time="0.2162902122" cumHazard="0.000345375401067962"/>
   <BaselineCell time="0.219028063" cumHazard="0.000345375401067962"/>
   <BaselineCell time="0.2272416153" cumHazard="0.000352750432971705"/>
   <BaselineCell time="0.2299794661" cumHazard="0.000367501836265539"/>
   <BaselineCell time="0.2354551677" cumHazard="0.000367501836265539"/>
   <BaselineCell time="0.2409308693" cumHazard="0.000382256011639614"/>
   <BaselineCell time="0.2436687201" cumHazard="0.000382256011639614"/>
   <BaselineCell time="0.2464065708" cumHazard="0.000382256011639614"/>
   <BaselineCell time="0.2491444216" cumHazard="0.000382256011639614"/>
   <BaselineCell time="0.2518822724" cumHazard="0.000404397615801663"/>
   <BaselineCell time="0.257357974" cumHazard="0.000404397615801663"/>
   <BaselineCell time="0.2628336756" cumHazard="0.000404397615801663"/>
   <BaselineCell time="0.2683093771" cumHazard="0.000419166108889477"/>
   <BaselineCell time="0.2710472279" cumHazard="0.000426551945141652"/>
   <BaselineCell time="0.2737850787" cumHazard="0.000433938788020163"/>
   <BaselineCell time="0.2765229295" cumHazard="0.000441327359605511"/>
   <BaselineCell time="0.2819986311" cumHazard="0.000456106191194622"/>
   <BaselineCell time="0.2847364819" cumHazard="0.000478277447042294"/>
   <BaselineCell time="0.2874743326" cumHazard="0.00048566842644344"/>
   <BaselineCell time="0.2929500342" cumHazard="0.000493059756215118"/>
   <BaselineCell time="0.295687885" cumHazard="0.000493059756215118"/>
   <BaselineCell time="0.3011635866" cumHazard="0.000500452349032409"/>
   <BaselineCell time="0.3066392882" cumHazard="0.000507845035162252"/>
   <BaselineCell time="0.3093771389" cumHazard="0.000515239048020529"/>
   <BaselineCell time="0.3121149897" cumHazard="0.000522633480748921"/>
   <BaselineCell time="0.3148528405" cumHazard="0.000522633480748921"/>
   <BaselineCell time="0.3175906913" cumHazard="0.000522633480748921"/>
   <BaselineCell time="0.3203285421" cumHazard="0.000522633480748921"/>
   <BaselineCell time="0.3230663929" cumHazard="0.000530029143935689"/>
   <BaselineCell time="0.3258042437" cumHazard="0.000530029143935689"/>
   <BaselineCell time="0.3285420945" cumHazard="0.000530029143935689"/>
   <BaselineCell time="0.3312799452" cumHazard="0.000530029143935689"/>
   <BaselineCell time="0.334017796" cumHazard="0.000530029143935689"/>
   <BaselineCell time="0.3367556468" cumHazard="0.000530029143935689"/>
   <BaselineCell time="0.3394934976" cumHazard="0.000530029143935689"/>
   <BaselineCell time="0.3422313484" cumHazard="0.00053743161751255"/>
   <BaselineCell time="0.3449691992" cumHazard="0.000544834847215181"/>
   <BaselineCell time="0.34770705" cumHazard="0.000544834847215181"/>
   <BaselineCell time="0.3504449008" cumHazard="0.000544834847215181"/>
   <BaselineCell time="0.3559206023" cumHazard="0.000552243372454095"/>
   <BaselineCell time="0.3586584531" cumHazard="0.000559653190083359"/>
   <BaselineCell time="0.3613963039" cumHazard="0.000559653190083359"/>
   <BaselineCell time="0.3641341547" cumHazard="0.000567064713140693"/>
   <BaselineCell time="0.3668720055" cumHazard="0.000567064713140693"/>
   <BaselineCell time="0.3696098563" cumHazard="0.000581889253271113"/>
   <BaselineCell time="0.372347707" cumHazard="0.000589302410167465"/>
   <BaselineCell time="0.3750855578" cumHazard="0.000589302410167465"/>
   <BaselineCell time="0.3778234086" cumHazard="0.00059671583347977"/>
   <BaselineCell time="0.3805612594" cumHazard="0.00060413125187106"/>
   <BaselineCell time="0.3832991102" cumHazard="0.00062637913370447"/>
   <BaselineCell time="0.386036961" cumHazard="0.00062637913370447"/>
   <BaselineCell time="0.3887748118" cumHazard="0.00062637913370447"/>
   <BaselineCell time="0.3915126626" cumHazard="0.000633797578535266"/>
   <BaselineCell time="0.3942505133" cumHazard="0.000641216520320574"/>
   <BaselineCell time="0.3997262149" cumHazard="0.00064863593365155"/>
   <BaselineCell time="0.4024640657" cumHazard="0.00065605669822567"/>
   <BaselineCell time="0.4052019165" cumHazard="0.000663477817496712"/>
   <BaselineCell time="0.4079397673" cumHazard="0.000663477817496712"/>
   <BaselineCell time="0.4106776181" cumHazard="0.000663477817496712"/>
   <BaselineCell time="0.4134154689" cumHazard="0.000670899838674959"/>
   <BaselineCell time="0.4161533196" cumHazard="0.000678324055068233"/>
   <BaselineCell time="0.4188911704" cumHazard="0.000685749189159696"/>
   <BaselineCell time="0.4216290212" cumHazard="0.000685749189159696"/>
   <BaselineCell time="0.424366872" cumHazard="0.000693175595360331"/>
   <BaselineCell time="0.4271047228" cumHazard="0.000693175595360331"/>
   <BaselineCell time="0.4298425736" cumHazard="0.000700602527009102"/>
   <BaselineCell time="0.4325804244" cumHazard="0.000708030265996719"/>
   <BaselineCell time="0.4353182752" cumHazard="0.000715459270172017"/>
   <BaselineCell time="0.4407939767" cumHazard="0.000715459270172017"/>
   <BaselineCell time="0.4435318275" cumHazard="0.000715459270172017"/>
   <BaselineCell time="0.4544832307" cumHazard="0.000715459270172017"/>
   <BaselineCell time="0.4572210815" cumHazard="0.000722894702432303"/>
   <BaselineCell time="0.4599589322" cumHazard="0.0007303306432507"/>
   <BaselineCell time="0.462696783" cumHazard="0.0007303306432507"/>
   <BaselineCell time="0.4681724846" cumHazard="0.000737767680643228"/>
   <BaselineCell time="0.4709103354" cumHazard="0.000737767680643228"/>
   <BaselineCell time="0.4736481862" cumHazard="0.000737767680643228"/>
   <BaselineCell time="0.476386037" cumHazard="0.000737767680643228"/>
   <BaselineCell time="0.4791238877" cumHazard="0.000745209954268005"/>
   <BaselineCell time="0.4818617385" cumHazard="0.000760096826517874"/>
   <BaselineCell time="0.4845995893" cumHazard="0.000767540603061774"/>
   <BaselineCell time="0.4873374401" cumHazard="0.000774988439357011"/>
   <BaselineCell time="0.4900752909" cumHazard="0.000782437612856375"/>
   <BaselineCell time="0.4928131417" cumHazard="0.000782437612856375"/>
   <BaselineCell time="0.4982888433" cumHazard="0.000789888592718116"/>
   <BaselineCell time="0.501026694" cumHazard="0.000797340560067045"/>
   <BaselineCell time="0.5037645448" cumHazard="0.000804793455379183"/>
   <BaselineCell time="0.5065023956" cumHazard="0.000804793455379183"/>
   <BaselineCell time="0.5092402464" cumHazard="0.00081224651945237"/>
   <BaselineCell time="0.5119780972" cumHazard="0.000819699746886859"/>
   <BaselineCell time="0.514715948" cumHazard="0.000834607240403899"/>
   <BaselineCell time="0.5174537988" cumHazard="0.000834607240403899"/>
   <BaselineCell time="0.5201916496" cumHazard="0.00084206141155574"/>
   <BaselineCell time="0.5229295003" cumHazard="0.000856971765289331"/>
   <BaselineCell time="0.5256673511" cumHazard="0.000856971765289331"/>
   <BaselineCell time="0.5284052019" cumHazard="0.000864428998382569"/>
   <BaselineCell time="0.5311430527" cumHazard="0.000871886590971179"/>
   <BaselineCell time="0.5338809035" cumHazard="0.000886802567743904"/>
   <BaselineCell time="0.5366187543" cumHazard="0.000894260926106661"/>
   <BaselineCell time="0.5393566051" cumHazard="0.000894260926106661"/>
   <BaselineCell time="0.5420944559" cumHazard="0.000894260926106661"/>
   <BaselineCell time="0.5448323066" cumHazard="0.000894260926106661"/>
   <BaselineCell time="0.5503080082" cumHazard="0.000901723009406203"/>
   <BaselineCell time="0.553045859" cumHazard="0.000924112493780993"/>
   <BaselineCell time="0.5557837098" cumHazard="0.000924112493780993"/>
   <BaselineCell time="0.5585215606" cumHazard="0.000924112493780993"/>
   <BaselineCell time="0.5612594114" cumHazard="0.000924112493780993"/>
   <BaselineCell time="0.5639972621" cumHazard="0.000939043733742963"/>
   <BaselineCell time="0.5722108145" cumHazard="0.000939043733742963"/>
   <BaselineCell time="0.5749486653" cumHazard="0.000946510141486889"/>
   <BaselineCell time="0.5776865161" cumHazard="0.000946510141486889"/>
   <BaselineCell time="0.5831622177" cumHazard="0.000953977868400841"/>
   <BaselineCell time="0.5859000684" cumHazard="0.000968916987175049"/>
   <BaselineCell time="0.5886379192" cumHazard="0.000968916987175049"/>
   <BaselineCell time="0.5941136208" cumHazard="0.000968916987175049"/>
   <BaselineCell time="0.5968514716" cumHazard="0.000968916987175049"/>
   <BaselineCell time="0.605065024" cumHazard="0.000976389773251788"/>
   <BaselineCell time="0.6078028747" cumHazard="0.000983863450877343"/>
   <BaselineCell time="0.6105407255" cumHazard="0.000991337459389236"/>
   <BaselineCell time="0.6160164271" cumHazard="0.000991337459389236"/>
   <BaselineCell time="0.6187542779" cumHazard="0.000991337459389236"/>
   <BaselineCell time="0.6214921287" cumHazard="0.000991337459389236"/>
   <BaselineCell time="0.6242299795" cumHazard="0.000998813412961002"/>
   <BaselineCell time="0.6269678303" cumHazard="0.00100629005886582"/>
   <BaselineCell time="0.629705681" cumHazard="0.00100629005886582"/>
   <BaselineCell time="0.6324435318" cumHazard="0.00101376861089052"/>
   <BaselineCell time="0.6351813826" cumHazard="0.00102124764588657"/>
   <BaselineCell time="0.6406570842" cumHazard="0.00102124764588657"/>
   <BaselineCell time="0.643394935" cumHazard="0.00102124764588657"/>
   <BaselineCell time="0.6488706366" cumHazard="0.00102873446327819"/>
   <BaselineCell time="0.6516084873" cumHazard="0.00104371046084772"/>
   <BaselineCell time="0.6543463381" cumHazard="0.00104371046084772"/>
   <BaselineCell time="0.6570841889" cumHazard="0.00105869344219033"/>
   <BaselineCell time="0.6598220397" cumHazard="0.00105869344219033"/>
   <BaselineCell time="0.6625598905" cumHazard="0.00105869344219033"/>
   <BaselineCell time="0.6652977413" cumHazard="0.00105869344219033"/>
   <BaselineCell time="0.6680355921" cumHazard="0.00105869344219033"/>
   <BaselineCell time="0.6707734428" cumHazard="0.00106618739221912"/>
   <BaselineCell time="0.6735112936" cumHazard="0.00106618739221912"/>
   <BaselineCell time="0.6762491444" cumHazard="0.00108118582218521"/>
   <BaselineCell time="0.6789869952" cumHazard="0.00108868619086763"/>
   <BaselineCell time="0.681724846" cumHazard="0.00109618681191316"/>
   <BaselineCell time="0.6844626968" cumHazard="0.00110368815263224"/>
   <BaselineCell time="0.6872005476" cumHazard="0.00111869255211769"/>
   <BaselineCell time="0.6899383984" cumHazard="0.00111869255211769"/>
   <BaselineCell time="0.6926762491" cumHazard="0.00113369992391998"/>
   <BaselineCell time="0.6954140999" cumHazard="0.00114871785975689"/>
   <BaselineCell time="0.6981519507" cumHazard="0.00114871785975689"/>
   <BaselineCell time="0.7008898015" cumHazard="0.00115622916938713"/>
   <BaselineCell time="0.7063655031" cumHazard="0.00116374303958583"/>
   <BaselineCell time="0.7091033539" cumHazard="0.00116374303958583"/>
   <BaselineCell time="0.7118412047" cumHazard="0.00116374303958583"/>
   <BaselineCell time="0.7145790554" cumHazard="0.00117125719004192"/>
   <BaselineCell time="0.7173169062" cumHazard="0.00117877182089727"/>
   <BaselineCell time="0.720054757" cumHazard="0.00119380375818598"/>
   <BaselineCell time="0.7310061602" cumHazard="0.00119380375818598"/>
   <BaselineCell time="0.7364818617" cumHazard="0.00120132350000307"/>
   <BaselineCell time="0.7392197125" cumHazard="0.00120132350000307"/>
   <BaselineCell time="0.7419575633" cumHazard="0.00120132350000307"/>
   <BaselineCell time="0.7446954141" cumHazard="0.00121636837358315"/>
   <BaselineCell time="0.7501711157" cumHazard="0.00121636837358315"/>
   <BaselineCell time="0.7529089665" cumHazard="0.00121636837358315"/>
   <BaselineCell time="0.758384668" cumHazard="0.0012238937949235"/>
   <BaselineCell time="0.7611225188" cumHazard="0.00123142141228222"/>
   <BaselineCell time="0.7638603696" cumHazard="0.00123142141228222"/>
   <BaselineCell time="0.7693360712" cumHazard="0.00123895166670118"/>
   <BaselineCell time="0.772073922" cumHazard="0.00123895166670118"/>
   <BaselineCell time="0.7748117728" cumHazard="0.0012540216234248"/>
   <BaselineCell time="0.7775496235" cumHazard="0.0012540216234248"/>
   <BaselineCell time="0.7802874743" cumHazard="0.00126155797353103"/>
   <BaselineCell time="0.7830253251" cumHazard="0.00126155797353103"/>
   <BaselineCell time="0.7857631759" cumHazard="0.00126909554876077"/>
   <BaselineCell time="0.7885010267" cumHazard="0.00126909554876077"/>
   <BaselineCell time="0.7912388775" cumHazard="0.00128417300456877"/>
   <BaselineCell time="0.7939767283" cumHazard="0.00129925357348851"/>
   <BaselineCell time="0.7967145791" cumHazard="0.00129925357348851"/>
   <BaselineCell time="0.7994524298" cumHazard="0.00129925357348851"/>
   <BaselineCell time="0.8021902806" cumHazard="0.00129925357348851"/>
   <BaselineCell time="0.8049281314" cumHazard="0.00131434087591989"/>
   <BaselineCell time="0.8076659822" cumHazard="0.00132942943396579"/>
   <BaselineCell time="0.810403833" cumHazard="0.00133697459431026"/>
   <BaselineCell time="0.8131416838" cumHazard="0.00135961279848447"/>
   <BaselineCell time="0.8158795346" cumHazard="0.0013671607474744"/>
   <BaselineCell time="0.8186173854" cumHazard="0.0013671607474744"/>
   <BaselineCell time="0.8213552361" cumHazard="0.0013671607474744"/>
   <BaselineCell time="0.8240930869" cumHazard="0.00137471135351075"/>
   <BaselineCell time="0.8268309377" cumHazard="0.00138226232351455"/>
   <BaselineCell time="0.8323066393" cumHazard="0.00138226232351455"/>
   <BaselineCell time="0.8377823409" cumHazard="0.00138226232351455"/>
   <BaselineCell time="0.8405201916" cumHazard="0.00138981432116418"/>
   <BaselineCell time="0.8432580424" cumHazard="0.00138981432116418"/>
   <BaselineCell time="0.848733744" cumHazard="0.00138981432116418"/>
   <BaselineCell time="0.8514715948" cumHazard="0.00138981432116418"/>
   <BaselineCell time="0.8542094456" cumHazard="0.00138981432116418"/>
   <BaselineCell time="0.8569472964" cumHazard="0.00140493147589455"/>
   <BaselineCell time="0.8596851472" cumHazard="0.00142005579658698"/>
   <BaselineCell time="0.8624229979" cumHazard="0.00142005579658698"/>
   <BaselineCell time="0.8651608487" cumHazard="0.00142005579658698"/>
   <BaselineCell time="0.8706365503" cumHazard="0.00142005579658698"/>
   <BaselineCell time="0.8733744011" cumHazard="0.00143518421724198"/>
   <BaselineCell time="0.8761122519" cumHazard="0.00143518421724198"/>
   <BaselineCell time="0.8788501027" cumHazard="0.00145031684152783"/>
   <BaselineCell time="0.8815879535" cumHazard="0.00146545220800121"/>
   <BaselineCell time="0.8843258042" cumHazard="0.00148058860920939"/>
   <BaselineCell time="0.887063655" cumHazard="0.00148815761909797"/>
   <BaselineCell time="0.8898015058" cumHazard="0.00148815761909797"/>
   <BaselineCell time="0.8925393566" cumHazard="0.00148815761909797"/>
   <BaselineCell time="0.8952772074" cumHazard="0.00148815761909797"/>
   <BaselineCell time="0.900752909" cumHazard="0.00149572791170943"/>
   <BaselineCell time="0.9034907598" cumHazard="0.00149572791170943"/>
   <BaselineCell time="0.9062286105" cumHazard="0.00150329886818634"/>
   <BaselineCell time="0.9089664613" cumHazard="0.00152601487342389"/>
   <BaselineCell time="0.9117043121" cumHazard="0.00152601487342389"/>
   <BaselineCell time="0.9171800137" cumHazard="0.00152601487342389"/>
   <BaselineCell time="0.9199178645" cumHazard="0.00152601487342389"/>
   <BaselineCell time="0.9226557153" cumHazard="0.00153359481007468"/>
   <BaselineCell time="0.9253935661" cumHazard="0.00153359481007468"/>
   <BaselineCell time="0.9281314168" cumHazard="0.00154875855165923"/>
   <BaselineCell time="0.9308692676" cumHazard="0.0015563419279895"/>
   <BaselineCell time="0.9336071184" cumHazard="0.00156392640740989"/>
   <BaselineCell time="0.9363449692" cumHazard="0.00157151441091935"/>
   <BaselineCell time="0.93908282" cumHazard="0.00157151441091935"/>
   <BaselineCell time="0.9445585216" cumHazard="0.00157151441091935"/>
   <BaselineCell time="0.9472963723" cumHazard="0.00158669575169791"/>
   <BaselineCell time="0.9527720739" cumHazard="0.00159428703867991"/>
   <BaselineCell time="0.9555099247" cumHazard="0.0016018786445653"/>
   <BaselineCell time="0.9582477755" cumHazard="0.00160947115115154"/>
   <BaselineCell time="0.9637234771" cumHazard="0.00161706611253696"/>
   <BaselineCell time="0.9664613279" cumHazard="0.00161706611253696"/>
   <BaselineCell time="0.9691991786" cumHazard="0.0016246619735018"/>
   <BaselineCell time="0.9719370294" cumHazard="0.0016246619735018"/>
   <BaselineCell time="0.9746748802" cumHazard="0.00163226028798726"/>
   <BaselineCell time="0.9801505818" cumHazard="0.00163226028798726"/>
   <BaselineCell time="0.9856262834" cumHazard="0.00164746392540243"/>
   <BaselineCell time="0.9911019849" cumHazard="0.00164746392540243"/>
   <BaselineCell time="0.9938398357" cumHazard="0.001655068660437"/>
   <BaselineCell time="0.9993155373" cumHazard="0.001655068660437"/>
   <BaselineCell time="1.0075290897" cumHazard="0.00166267470087307"/>
   <BaselineCell time="1.0102669405" cumHazard="0.00167789040988308"/>
   <BaselineCell time="1.0130047912" cumHazard="0.00168550039367388"/>
   <BaselineCell time="1.015742642" cumHazard="0.00169311085759473"/>
   <BaselineCell time="1.0184804928" cumHazard="0.00169311085759473"/>
   <BaselineCell time="1.0239561944" cumHazard="0.00170072279346438"/>
   <BaselineCell time="1.0321697467" cumHazard="0.0017083352653743"/>
   <BaselineCell time="1.0349075975" cumHazard="0.0017083352653743"/>
   <BaselineCell time="1.0376454483" cumHazard="0.0017083352653743"/>
   <BaselineCell time="1.0403832991" cumHazard="0.0017083352653743"/>
   <BaselineCell time="1.0458590007" cumHazard="0.00171594911821282"/>
   <BaselineCell time="1.0485968515" cumHazard="0.00171594911821282"/>
   <BaselineCell time="1.0513347023" cumHazard="0.00171594911821282"/>
   <BaselineCell time="1.054072553" cumHazard="0.00171594911821282"/>
   <BaselineCell time="1.0595482546" cumHazard="0.0017235651743465"/>
   <BaselineCell time="1.0622861054" cumHazard="0.0017235651743465"/>
   <BaselineCell time="1.067761807" cumHazard="0.0017235651743465"/>
   <BaselineCell time="1.0704996578" cumHazard="0.00173880136253606"/>
   <BaselineCell time="1.0814510609" cumHazard="0.00173880136253606"/>
   <BaselineCell time="1.0841889117" cumHazard="0.00173880136253606"/>
   <BaselineCell time="1.0869267625" cumHazard="0.00173880136253606"/>
   <BaselineCell time="1.0896646133" cumHazard="0.00174642274357222"/>
   <BaselineCell time="1.0924024641" cumHazard="0.00174642274357222"/>
   <BaselineCell time="1.0951403149" cumHazard="0.00174642274357222"/>
   <BaselineCell time="1.0978781656" cumHazard="0.00175404650540201"/>
   <BaselineCell time="1.1006160164" cumHazard="0.00175404650540201"/>
   <BaselineCell time="1.1033538672" cumHazard="0.00175404650540201"/>
   <BaselineCell time="1.106091718" cumHazard="0.00176167107359095"/>
   <BaselineCell time="1.1088295688" cumHazard="0.00177692606138106"/>
   <BaselineCell time="1.1115674196" cumHazard="0.00178455461935247"/>
   <BaselineCell time="1.1143052704" cumHazard="0.00179218362013602"/>
   <BaselineCell time="1.1197809719" cumHazard="0.0017998143001974"/>
   <BaselineCell time="1.1225188227" cumHazard="0.00182270970245249"/>
   <BaselineCell time="1.1252566735" cumHazard="0.00182270970245249"/>
   <BaselineCell time="1.1307323751" cumHazard="0.00182270970245249"/>
   <BaselineCell time="1.1334702259" cumHazard="0.00182270970245249"/>
   <BaselineCell time="1.1362080767" cumHazard="0.00182270970245249"/>
   <BaselineCell time="1.1389459274" cumHazard="0.00183034669810574"/>
   <BaselineCell time="1.1526351814" cumHazard="0.00183798482886835"/>
   <BaselineCell time="1.1553730322" cumHazard="0.00186090303476803"/>
   <BaselineCell time="1.1608487337" cumHazard="0.00186090303476803"/>
   <BaselineCell time="1.1635865845" cumHazard="0.00186090303476803"/>
   <BaselineCell time="1.1663244353" cumHazard="0.00186854537612074"/>
   <BaselineCell time="1.1690622861" cumHazard="0.00187618891056443"/>
   <BaselineCell time="1.1718001369" cumHazard="0.00187618891056443"/>
   <BaselineCell time="1.1745379877" cumHazard="0.00187618891056443"/>
   <BaselineCell time="1.1772758385" cumHazard="0.00189148311932351"/>
   <BaselineCell time="1.1800136893" cumHazard="0.00189148311932351"/>
   <BaselineCell time="1.18275154" cumHazard="0.00189913278197843"/>
   <BaselineCell time="1.1854893908" cumHazard="0.00190678310694974"/>
   <BaselineCell time="1.1882272416" cumHazard="0.00192208546774258"/>
   <BaselineCell time="1.1909650924" cumHazard="0.00193739131250531"/>
   <BaselineCell time="1.1937029432" cumHazard="0.00194504679591634"/>
   <BaselineCell time="1.196440794" cumHazard="0.00194504679591634"/>
   <BaselineCell time="1.1991786448" cumHazard="0.00195270478976139"/>
   <BaselineCell time="1.2019164956" cumHazard="0.00195270478976139"/>
   <BaselineCell time="1.2046543463" cumHazard="0.00196036500791202"/>
   <BaselineCell time="1.2073921971" cumHazard="0.00196802580853258"/>
   <BaselineCell time="1.2128678987" cumHazard="0.00196802580853258"/>
   <BaselineCell time="1.2156057495" cumHazard="0.0019756871286888"/>
   <BaselineCell time="1.2183436003" cumHazard="0.0019756871286888"/>
   <BaselineCell time="1.2210814511" cumHazard="0.0019756871286888"/>
   <BaselineCell time="1.2238193018" cumHazard="0.0019756871286888"/>
   <BaselineCell time="1.2265571526" cumHazard="0.00199867767966136"/>
   <BaselineCell time="1.2320328542" cumHazard="0.00199867767966136"/>
   <BaselineCell time="1.2375085558" cumHazard="0.00199867767966136"/>
   <BaselineCell time="1.2402464066" cumHazard="0.00199867767966136"/>
   <BaselineCell time="1.2457221081" cumHazard="0.00199867767966136"/>
   <BaselineCell time="1.2511978097" cumHazard="0.00199867767966136"/>
   <BaselineCell time="1.2539356605" cumHazard="0.00200634679126317"/>
   <BaselineCell time="1.2566735113" cumHazard="0.00200634679126317"/>
   <BaselineCell time="1.2594113621" cumHazard="0.00201401962681312"/>
   <BaselineCell time="1.2621492129" cumHazard="0.00201401962681312"/>
   <BaselineCell time="1.2648870637" cumHazard="0.00202936895902911"/>
   <BaselineCell time="1.2676249144" cumHazard="0.00204472207517863"/>
   <BaselineCell time="1.2703627652" cumHazard="0.00206007754196518"/>
   <BaselineCell time="1.273100616" cumHazard="0.00206775571604063"/>
   <BaselineCell time="1.2758384668" cumHazard="0.00207543450481914"/>
   <BaselineCell time="1.2785763176" cumHazard="0.00207543450481914"/>
   <BaselineCell time="1.2840520192" cumHazard="0.00209080032437855"/>
   <BaselineCell time="1.28678987" cumHazard="0.0020984856601715"/>
   <BaselineCell time="1.2922655715" cumHazard="0.0020984856601715"/>
   <BaselineCell time="1.2950034223" cumHazard="0.0020984856601715"/>
   <BaselineCell time="1.2977412731" cumHazard="0.0020984856601715"/>
   <BaselineCell time="1.3032169747" cumHazard="0.0020984856601715"/>
   <BaselineCell time="1.3059548255" cumHazard="0.0020984856601715"/>
   <BaselineCell time="1.3086926762" cumHazard="0.0020984856601715"/>
   <BaselineCell time="1.311430527" cumHazard="0.00211386506148864"/>
   <BaselineCell time="1.3141683778" cumHazard="0.00212155599694991"/>
   <BaselineCell time="1.3169062286" cumHazard="0.00212155599694991"/>
   <BaselineCell time="1.3196440794" cumHazard="0.00213694107834477"/>
   <BaselineCell time="1.3223819302" cumHazard="0.00214463905447564"/>
   <BaselineCell time="1.3278576318" cumHazard="0.00215233908904768"/>
   <BaselineCell time="1.3305954825" cumHazard="0.00215233908904768"/>
   <BaselineCell time="1.3360711841" cumHazard="0.00216004213036672"/>
   <BaselineCell time="1.3415468857" cumHazard="0.00216004213036672"/>
   <BaselineCell time="1.3442847365" cumHazard="0.00216004213036672"/>
   <BaselineCell time="1.3470225873" cumHazard="0.00216004213036672"/>
   <BaselineCell time="1.3552361396" cumHazard="0.00216775076291679"/>
   <BaselineCell time="1.3579739904" cumHazard="0.0021831721231261"/>
   <BaselineCell time="1.3607118412" cumHazard="0.0021831721231261"/>
   <BaselineCell time="1.363449692" cumHazard="0.0021831721231261"/>
   <BaselineCell time="1.3661875428" cumHazard="0.00219088865366582"/>
   <BaselineCell time="1.3689253936" cumHazard="0.00219088865366582"/>
   <BaselineCell time="1.3716632444" cumHazard="0.00220632723200757"/>
   <BaselineCell time="1.3744010951" cumHazard="0.00222176708920987"/>
   <BaselineCell time="1.3771389459" cumHazard="0.00222176708920987"/>
   <BaselineCell time="1.3798767967" cumHazard="0.00222176708920987"/>
   <BaselineCell time="1.3826146475" cumHazard="0.0022372198137706"/>
   <BaselineCell time="1.3853524983" cumHazard="0.0022372198137706"/>
   <BaselineCell time="1.3908281999" cumHazard="0.0022449511690313"/>
   <BaselineCell time="1.3935660507" cumHazard="0.0022449511690313"/>
   <BaselineCell time="1.3963039014" cumHazard="0.00225268272741157"/>
   <BaselineCell time="1.401779603" cumHazard="0.00226041448451079"/>
   <BaselineCell time="1.4045174538" cumHazard="0.00226041448451079"/>
   <BaselineCell time="1.4072553046" cumHazard="0.00226041448451079"/>
   <BaselineCell time="1.4099931554" cumHazard="0.0022758876926869"/>
   <BaselineCell time="1.4127310062" cumHazard="0.00228362771160119"/>
   <BaselineCell time="1.4154688569" cumHazard="0.00228362771160119"/>
   <BaselineCell time="1.4182067077" cumHazard="0.00229136809804618"/>
   <BaselineCell time="1.4209445585" cumHazard="0.00229911022837712"/>
   <BaselineCell time="1.4264202601" cumHazard="0.00229911022837712"/>
   <BaselineCell time="1.4291581109" cumHazard="0.00230685338777885"/>
   <BaselineCell time="1.4318959617" cumHazard="0.00231459855999634"/>
   <BaselineCell time="1.4346338125" cumHazard="0.00232234511956881"/>
   <BaselineCell time="1.4373716632" cumHazard="0.00232234511956881"/>
   <BaselineCell time="1.4428473648" cumHazard="0.00232234511956881"/>
   <BaselineCell time="1.4455852156" cumHazard="0.00233009458850374"/>
   <BaselineCell time="1.4483230664" cumHazard="0.00233009458850374"/>
   <BaselineCell time="1.4510609172" cumHazard="0.00233009458850374"/>
   <BaselineCell time="1.453798768" cumHazard="0.00233009458850374"/>
   <BaselineCell time="1.4565366188" cumHazard="0.00234560209229197"/>
   <BaselineCell time="1.4592744695" cumHazard="0.00235335779776405"/>
   <BaselineCell time="1.4620123203" cumHazard="0.00235335779776405"/>
   <BaselineCell time="1.4647501711" cumHazard="0.00235335779776405"/>
   <BaselineCell time="1.4674880219" cumHazard="0.00236111533245171"/>
   <BaselineCell time="1.4702258727" cumHazard="0.00236887324527754"/>
   <BaselineCell time="1.4784394251" cumHazard="0.00238439045263233"/>
   <BaselineCell time="1.4811772758" cumHazard="0.00238439045263233"/>
   <BaselineCell time="1.4839151266" cumHazard="0.00239215104181216"/>
   <BaselineCell time="1.4866529774" cumHazard="0.00239991221967532"/>
   <BaselineCell time="1.492128679" cumHazard="0.00240767397261852"/>
   <BaselineCell time="1.4948665298" cumHazard="0.00241543688572162"/>
   <BaselineCell time="1.4976043806" cumHazard="0.00243096715713668"/>
   <BaselineCell time="1.5003422313" cumHazard="0.00243096715713668"/>
   <BaselineCell time="1.5030800821" cumHazard="0.00243873665996657"/>
   <BaselineCell time="1.5058179329" cumHazard="0.00243873665996657"/>
   <BaselineCell time="1.5085557837" cumHazard="0.00244650909524271"/>
   <BaselineCell time="1.5112936345" cumHazard="0.00244650909524271"/>
   <BaselineCell time="1.5140314853" cumHazard="0.00245428296949161"/>
   <BaselineCell time="1.5167693361" cumHazard="0.00245428296949161"/>
   <BaselineCell time="1.5195071869" cumHazard="0.00246983323166369"/>
   <BaselineCell time="1.5222450376" cumHazard="0.00248538592971536"/>
   <BaselineCell time="1.5249828884" cumHazard="0.00248538592971536"/>
   <BaselineCell time="1.5277207392" cumHazard="0.00249316470123589"/>
   <BaselineCell time="1.5331964408" cumHazard="0.00249316470123589"/>
   <BaselineCell time="1.5359342916" cumHazard="0.00250094465931202"/>
   <BaselineCell time="1.5386721424" cumHazard="0.00252428764206327"/>
   <BaselineCell time="1.5414099932" cumHazard="0.00252428764206327"/>
   <BaselineCell time="1.5441478439" cumHazard="0.00253985369876081"/>
   <BaselineCell time="1.5468856947" cumHazard="0.00254763755954108"/>
   <BaselineCell time="1.5496235455" cumHazard="0.00254763755954108"/>
   <BaselineCell time="1.5523613963" cumHazard="0.00256320851288798"/>
   <BaselineCell time="1.5550992471" cumHazard="0.00257099509771606"/>
   <BaselineCell time="1.5578370979" cumHazard="0.00257099509771606"/>
   <BaselineCell time="1.5605749487" cumHazard="0.00257099509771606"/>
   <BaselineCell time="1.5633127995" cumHazard="0.00257099509771606"/>
   <BaselineCell time="1.5660506502" cumHazard="0.00257878206684075"/>
   <BaselineCell time="1.568788501" cumHazard="0.00257878206684075"/>
   <BaselineCell time="1.5715263518" cumHazard="0.00258657151278505"/>
   <BaselineCell time="1.5742642026" cumHazard="0.00261773301954664"/>
   <BaselineCell time="1.5770020534" cumHazard="0.00263331808118785"/>
   <BaselineCell time="1.5797399042" cumHazard="0.00264890856090588"/>
   <BaselineCell time="1.582477755" cumHazard="0.00266450142478486"/>
   <BaselineCell time="1.5852156057" cumHazard="0.00268009652815052"/>
   <BaselineCell time="1.5879534565" cumHazard="0.00268009652815052"/>
   <BaselineCell time="1.5906913073" cumHazard="0.00268789743825301"/>
   <BaselineCell time="1.5934291581" cumHazard="0.00268789743825301"/>
   <BaselineCell time="1.5961670089" cumHazard="0.00269569887093259"/>
   <BaselineCell time="1.5989048597" cumHazard="0.00270350072666335"/>
   <BaselineCell time="1.6016427105" cumHazard="0.00271130290311294"/>
   <BaselineCell time="1.6043805613" cumHazard="0.00271910567852461"/>
   <BaselineCell time="1.6098562628" cumHazard="0.00272691049636288"/>
   <BaselineCell time="1.6180698152" cumHazard="0.00272691049636288"/>
   <BaselineCell time="1.620807666" cumHazard="0.00273471684901042"/>
   <BaselineCell time="1.6235455168" cumHazard="0.00274252448729767"/>
   <BaselineCell time="1.6262833676" cumHazard="0.00275033288552224"/>
   <BaselineCell time="1.6290212183" cumHazard="0.00275033288552224"/>
   <BaselineCell time="1.6344969199" cumHazard="0.00275033288552224"/>
   <BaselineCell time="1.6372347707" cumHazard="0.00275814399321015"/>
   <BaselineCell time="1.6454483231" cumHazard="0.00276595582958855"/>
   <BaselineCell time="1.6481861739" cumHazard="0.00277376781690665"/>
   <BaselineCell time="1.6509240246" cumHazard="0.00277376781690665"/>
   <BaselineCell time="1.6536618754" cumHazard="0.00278158134251683"/>
   <BaselineCell time="1.6563997262" cumHazard="0.00278939636363177"/>
   <BaselineCell time="1.659137577" cumHazard="0.00278939636363177"/>
   <BaselineCell time="1.6618754278" cumHazard="0.0027972116125615"/>
   <BaselineCell time="1.6646132786" cumHazard="0.0027972116125615"/>
   <BaselineCell time="1.6700889802" cumHazard="0.00281284615415165"/>
   <BaselineCell time="1.6728268309" cumHazard="0.0028284834668689"/>
   <BaselineCell time="1.6783025325" cumHazard="0.0028284834668689"/>
   <BaselineCell time="1.6810403833" cumHazard="0.0028284834668689"/>
   <BaselineCell time="1.6837782341" cumHazard="0.0028284834668689"/>
   <BaselineCell time="1.6865160849" cumHazard="0.002836305306333"/>
   <BaselineCell time="1.6892539357" cumHazard="0.00285194944068897"/>
   <BaselineCell time="1.6919917864" cumHazard="0.00285977184710119"/>
   <BaselineCell time="1.6947296372" cumHazard="0.00286759613933435"/>
   <BaselineCell time="1.697467488" cumHazard="0.00286759613933435"/>
   <BaselineCell time="1.7002053388" cumHazard="0.00287542206056516"/>
   <BaselineCell time="1.7056810404" cumHazard="0.00288324857831899"/>
   <BaselineCell time="1.7084188912" cumHazard="0.00289107533592427"/>
   <BaselineCell time="1.7138945927" cumHazard="0.00289107533592427"/>
   <BaselineCell time="1.7166324435" cumHazard="0.00289107533592427"/>
   <BaselineCell time="1.7193702943" cumHazard="0.00289890623768642"/>
   <BaselineCell time="1.7221081451" cumHazard="0.00292240177240501"/>
   <BaselineCell time="1.7275838467" cumHazard="0.00292240177240501"/>
   <BaselineCell time="1.7330595483" cumHazard="0.00292240177240501"/>
   <BaselineCell time="1.735797399" cumHazard="0.00292240177240501"/>
   <BaselineCell time="1.7385352498" cumHazard="0.00292240177240501"/>
   <BaselineCell time="1.7412731006" cumHazard="0.00294591666585005"/>
   <BaselineCell time="1.7440109514" cumHazard="0.00295375619378202"/>
   <BaselineCell time="1.7467488022" cumHazard="0.00295375619378202"/>
   <BaselineCell time="1.7549623546" cumHazard="0.00296159805626567"/>
   <BaselineCell time="1.7577002053" cumHazard="0.00296159805626567"/>
   <BaselineCell time="1.7604380561" cumHazard="0.00296944097144103"/>
   <BaselineCell time="1.7631759069" cumHazard="0.00298513045936769"/>
   <BaselineCell time="1.7659137577" cumHazard="0.00299297577418074"/>
   <BaselineCell time="1.7686516085" cumHazard="0.00299297577418074"/>
   <BaselineCell time="1.7741273101" cumHazard="0.00299297577418074"/>
   <BaselineCell time="1.7768651608" cumHazard="0.00300082522121597"/>
   <BaselineCell time="1.7823408624" cumHazard="0.00300082522121597"/>
   <BaselineCell time="1.7850787132" cumHazard="0.00300082522121597"/>
   <BaselineCell time="1.787816564" cumHazard="0.00300082522121597"/>
   <BaselineCell time="1.7905544148" cumHazard="0.00300082522121597"/>
   <BaselineCell time="1.7932922656" cumHazard="0.00300867822746266"/>
   <BaselineCell time="1.7960301164" cumHazard="0.00301653328101926"/>
   <BaselineCell time="1.7987679671" cumHazard="0.00302438869788781"/>
   <BaselineCell time="1.8015058179" cumHazard="0.00302438869788781"/>
   <BaselineCell time="1.8042436687" cumHazard="0.00303224818320431"/>
   <BaselineCell time="1.8069815195" cumHazard="0.00304010904101376"/>
   <BaselineCell time="1.8097193703" cumHazard="0.00304010904101376"/>
   <BaselineCell time="1.8124572211" cumHazard="0.00305583141424449"/>
   <BaselineCell time="1.8179329227" cumHazard="0.00306369383898847"/>
   <BaselineCell time="1.8206707734" cumHazard="0.00306369383898847"/>
   <BaselineCell time="1.8234086242" cumHazard="0.0030794223282964"/>
   <BaselineCell time="1.826146475" cumHazard="0.0030794223282964"/>
   <BaselineCell time="1.8288843258" cumHazard="0.00308728747857295"/>
   <BaselineCell time="1.8316221766" cumHazard="0.00309515428498368"/>
   <BaselineCell time="1.8343600274" cumHazard="0.00309515428498368"/>
   <BaselineCell time="1.839835729" cumHazard="0.00309515428498368"/>
   <BaselineCell time="1.8425735797" cumHazard="0.00310302393537651"/>
   <BaselineCell time="1.8453114305" cumHazard="0.00310302393537651"/>
   <BaselineCell time="1.8480492813" cumHazard="0.00311089403431711"/>
   <BaselineCell time="1.8507871321" cumHazard="0.00311089403431711"/>
   <BaselineCell time="1.8535249829" cumHazard="0.00311876536024479"/>
   <BaselineCell time="1.8562628337" cumHazard="0.00312663933303693"/>
   <BaselineCell time="1.8590006845" cumHazard="0.00312663933303693"/>
   <BaselineCell time="1.8617385352" cumHazard="0.00314239706657528"/>
   <BaselineCell time="1.864476386" cumHazard="0.00315027769046754"/>
   <BaselineCell time="1.8699520876" cumHazard="0.00315027769046754"/>
   <BaselineCell time="1.8726899384" cumHazard="0.00315815870959875"/>
   <BaselineCell time="1.8754277892" cumHazard="0.0031660398068678"/>
   <BaselineCell time="1.87816564" cumHazard="0.00317392205690753"/>
   <BaselineCell time="1.8836413415" cumHazard="0.00318180499058932"/>
   <BaselineCell time="1.8891170431" cumHazard="0.00318968812744202"/>
   <BaselineCell time="1.8918548939" cumHazard="0.00319757137070252"/>
   <BaselineCell time="1.8945927447" cumHazard="0.00319757137070252"/>
   <BaselineCell time="1.8973305955" cumHazard="0.00320545476307535"/>
   <BaselineCell time="1.9000684463" cumHazard="0.00320545476307535"/>
   <BaselineCell time="1.9028062971" cumHazard="0.00321334207641015"/>
   <BaselineCell time="1.9055441478" cumHazard="0.00321334207641015"/>
   <BaselineCell time="1.9110198494" cumHazard="0.0032212323649387"/>
   <BaselineCell time="1.9137577002" cumHazard="0.0032212323649387"/>
   <BaselineCell time="1.916495551" cumHazard="0.0032212323649387"/>
   <BaselineCell time="1.9192334018" cumHazard="0.00322912545880457"/>
   <BaselineCell time="1.9219712526" cumHazard="0.00324491286042279"/>
   <BaselineCell time="1.9247091034" cumHazard="0.00324491286042279"/>
   <BaselineCell time="1.9274469541" cumHazard="0.00325280991448652"/>
   <BaselineCell time="1.9301848049" cumHazard="0.00325280991448652"/>
   <BaselineCell time="1.9329226557" cumHazard="0.00325280991448652"/>
   <BaselineCell time="1.9356605065" cumHazard="0.00326861631429079"/>
   <BaselineCell time="1.9383983573" cumHazard="0.00326861631429079"/>
   <BaselineCell time="1.9411362081" cumHazard="0.00326861631429079"/>
   <BaselineCell time="1.9493497604" cumHazard="0.00327652636552945"/>
   <BaselineCell time="1.9520876112" cumHazard="0.00327652636552945"/>
   <BaselineCell time="1.954825462" cumHazard="0.00327652636552945"/>
   <BaselineCell time="1.9603011636" cumHazard="0.00328444041971291"/>
   <BaselineCell time="1.9630390144" cumHazard="0.00329235690898995"/>
   <BaselineCell time="1.9657768652" cumHazard="0.00329235690898995"/>
   <BaselineCell time="1.9712525667" cumHazard="0.00329235690898995"/>
   <BaselineCell time="1.9739904175" cumHazard="0.00329235690898995"/>
   <BaselineCell time="1.9767282683" cumHazard="0.00330027612087818"/>
   <BaselineCell time="1.9794661191" cumHazard="0.00330027612087818"/>
   <BaselineCell time="1.9849418207" cumHazard="0.00330027612087818"/>
   <BaselineCell time="1.9876796715" cumHazard="0.00330027612087818"/>
   <BaselineCell time="1.9904175222" cumHazard="0.00330819834103734"/>
   <BaselineCell time="1.9986310746" cumHazard="0.00330819834103734"/>
   <BaselineCell time="2.0013689254" cumHazard="0.00330819834103734"/>
   <BaselineCell time="2.0041067762" cumHazard="0.00330819834103734"/>
   <BaselineCell time="2.006844627" cumHazard="0.00331612466874814"/>
   <BaselineCell time="2.0095824778" cumHazard="0.00333198014632238"/>
   <BaselineCell time="2.0123203285" cumHazard="0.00333990864954588"/>
   <BaselineCell time="2.0177960301" cumHazard="0.00333990864954588"/>
   <BaselineCell time="2.0205338809" cumHazard="0.00337163956855412"/>
   <BaselineCell time="2.0232717317" cumHazard="0.00337957572001122"/>
   <BaselineCell time="2.0260095825" cumHazard="0.00337957572001122"/>
   <BaselineCell time="2.0287474333" cumHazard="0.00337957572001122"/>
   <BaselineCell time="2.0314852841" cumHazard="0.00337957572001122"/>
   <BaselineCell time="2.0342231348" cumHazard="0.00339545525552588"/>
   <BaselineCell time="2.0369609856" cumHazard="0.00340339693700681"/>
   <BaselineCell time="2.0424366872" cumHazard="0.00341134067822542"/>
   <BaselineCell time="2.0479123888" cumHazard="0.00341928608261653"/>
   <BaselineCell time="2.0506502396" cumHazard="0.00342723192142469"/>
   <BaselineCell time="2.0533880903" cumHazard="0.00343517777619844"/>
   <BaselineCell time="2.0561259411" cumHazard="0.00343517777619844"/>
   <BaselineCell time="2.0588637919" cumHazard="0.0034431237010582"/>
   <BaselineCell time="2.0616016427" cumHazard="0.00346696761445836"/>
   <BaselineCell time="2.0643394935" cumHazard="0.00347491676227303"/>
   <BaselineCell time="2.0670773443" cumHazard="0.00347491676227303"/>
   <BaselineCell time="2.0698151951" cumHazard="0.0034828669839071"/>
   <BaselineCell time="2.0725530459" cumHazard="0.00349877060513141"/>
   <BaselineCell time="2.0752908966" cumHazard="0.00349877060513141"/>
   <BaselineCell time="2.0780287474" cumHazard="0.00350672358672892"/>
   <BaselineCell time="2.0807665982" cumHazard="0.00351467699160882"/>
   <BaselineCell time="2.083504449" cumHazard="0.00352263174401121"/>
   <BaselineCell time="2.0862422998" cumHazard="0.00352263174401121"/>
   <BaselineCell time="2.0944558522" cumHazard="0.00353854707462705"/>
   <BaselineCell time="2.0971937029" cumHazard="0.00353854707462705"/>
   <BaselineCell time="2.0999315537" cumHazard="0.00354650668525965"/>
   <BaselineCell time="2.1026694045" cumHazard="0.00354650668525965"/>
   <BaselineCell time="2.1054072553" cumHazard="0.00355446839889036"/>
   <BaselineCell time="2.1081451061" cumHazard="0.00356243271119549"/>
   <BaselineCell time="2.1108829569" cumHazard="0.00357039760933196"/>
   <BaselineCell time="2.1163586585" cumHazard="0.00357836339100601"/>
   <BaselineCell time="2.1190965092" cumHazard="0.00357836339100601"/>
   <BaselineCell time="2.12183436" cumHazard="0.00358632988648486"/>
   <BaselineCell time="2.1245722108" cumHazard="0.00359429676828038"/>
   <BaselineCell time="2.1273100616" cumHazard="0.00360226392019341"/>
   <BaselineCell time="2.1300479124" cumHazard="0.00361023187703269"/>
   <BaselineCell time="2.1327857632" cumHazard="0.0036182004181414"/>
   <BaselineCell time="2.135523614" cumHazard="0.0036182004181414"/>
   <BaselineCell time="2.1382614648" cumHazard="0.00363415052527923"/>
   <BaselineCell time="2.1409993155" cumHazard="0.00363415052527923"/>
   <BaselineCell time="2.1464750171" cumHazard="0.00363415052527923"/>
   <BaselineCell time="2.1519507187" cumHazard="0.00364212801601289"/>
   <BaselineCell time="2.1574264203" cumHazard="0.00364212801601289"/>
   <BaselineCell time="2.160164271" cumHazard="0.00365010720845811"/>
   <BaselineCell time="2.1629021218" cumHazard="0.00365010720845811"/>
   <BaselineCell time="2.1656399726" cumHazard="0.00365808884586342"/>
   <BaselineCell time="2.1683778234" cumHazard="0.00365808884586342"/>
   <BaselineCell time="2.1711156742" cumHazard="0.00366607135933203"/>
   <BaselineCell time="2.173853525" cumHazard="0.00366607135933203"/>
   <BaselineCell time="2.1765913758" cumHazard="0.00366607135933203"/>
   <BaselineCell time="2.1793292266" cumHazard="0.00367405674791564"/>
   <BaselineCell time="2.1848049281" cumHazard="0.00367405674791564"/>
   <BaselineCell time="2.1875427789" cumHazard="0.00367405674791564"/>
   <BaselineCell time="2.1930184805" cumHazard="0.00368204400692028"/>
   <BaselineCell time="2.1957563313" cumHazard="0.00369802181896966"/>
   <BaselineCell time="2.1984941821" cumHazard="0.00370601143650875"/>
   <BaselineCell time="2.2012320329" cumHazard="0.00371400138838945"/>
   <BaselineCell time="2.2067077344" cumHazard="0.00372998248632156"/>
   <BaselineCell time="2.2094455852" cumHazard="0.0037379749410328"/>
   <BaselineCell time="2.212183436" cumHazard="0.0037379749410328"/>
   <BaselineCell time="2.2149212868" cumHazard="0.0037379749410328"/>
   <BaselineCell time="2.2176591376" cumHazard="0.0037379749410328"/>
   <BaselineCell time="2.2203969884" cumHazard="0.00375397047665229"/>
   <BaselineCell time="2.2258726899" cumHazard="0.00376196898150786"/>
   <BaselineCell time="2.2286105407" cumHazard="0.00376196898150786"/>
   <BaselineCell time="2.2313483915" cumHazard="0.00376196898150786"/>
   <BaselineCell time="2.2340862423" cumHazard="0.00376196898150786"/>
   <BaselineCell time="2.2368240931" cumHazard="0.00376196898150786"/>
   <BaselineCell time="2.2422997947" cumHazard="0.00377797159287487"/>
   <BaselineCell time="2.2450376454" cumHazard="0.00377797159287487"/>
   <BaselineCell time="2.2477754962" cumHazard="0.00377797159287487"/>
   <BaselineCell time="2.250513347" cumHazard="0.00378597614562265"/>
   <BaselineCell time="2.2532511978" cumHazard="0.00379398282085181"/>
   <BaselineCell time="2.2559890486" cumHazard="0.00380199007870858"/>
   <BaselineCell time="2.2587268994" cumHazard="0.00380999817848257"/>
   <BaselineCell time="2.2614647502" cumHazard="0.00380999817848257"/>
   <BaselineCell time="2.264202601" cumHazard="0.00381800689650142"/>
   <BaselineCell time="2.2669404517" cumHazard="0.00381800689650142"/>
   <BaselineCell time="2.2696783025" cumHazard="0.00381800689650142"/>
   <BaselineCell time="2.2751540041" cumHazard="0.00381800689650142"/>
   <BaselineCell time="2.2778918549" cumHazard="0.00382601924454779"/>
   <BaselineCell time="2.2806297057" cumHazard="0.00383403517077965"/>
   <BaselineCell time="2.2833675565" cumHazard="0.00383403517077965"/>
   <BaselineCell time="2.288843258" cumHazard="0.00383403517077965"/>
   <BaselineCell time="2.2943189596" cumHazard="0.00384205653067257"/>
   <BaselineCell time="2.302532512" cumHazard="0.00384205653067257"/>
   <BaselineCell time="2.3052703628" cumHazard="0.00385007949803188"/>
   <BaselineCell time="2.3080082136" cumHazard="0.00385007949803188"/>
   <BaselineCell time="2.3189596167" cumHazard="0.00385007949803188"/>
   <BaselineCell time="2.3216974675" cumHazard="0.00385810485534108"/>
   <BaselineCell time="2.3244353183" cumHazard="0.00385810485534108"/>
   <BaselineCell time="2.3271731691" cumHazard="0.0038661327042251"/>
   <BaselineCell time="2.3299110198" cumHazard="0.00387416168248994"/>
   <BaselineCell time="2.3326488706" cumHazard="0.00388219134923218"/>
   <BaselineCell time="2.3353867214" cumHazard="0.00389022125096679"/>
   <BaselineCell time="2.3381245722" cumHazard="0.00390628296759914"/>
   <BaselineCell time="2.340862423" cumHazard="0.00392234952877158"/>
   <BaselineCell time="2.3436002738" cumHazard="0.00393038338761299"/>
   <BaselineCell time="2.3463381246" cumHazard="0.00394645572786794"/>
   <BaselineCell time="2.3490759754" cumHazard="0.00395449304641435"/>
   <BaselineCell time="2.3518138261" cumHazard="0.00395449304641435"/>
   <BaselineCell time="2.3545516769" cumHazard="0.00396253413710542"/>
   <BaselineCell time="2.3572895277" cumHazard="0.00397057808856138"/>
   <BaselineCell time="2.3600273785" cumHazard="0.00397057808856138"/>
   <BaselineCell time="2.3627652293" cumHazard="0.00397862615481771"/>
   <BaselineCell time="2.3655030801" cumHazard="0.00398667501583041"/>
   <BaselineCell time="2.3682409309" cumHazard="0.00399472504147323"/>
   <BaselineCell time="2.3709787817" cumHazard="0.00399472504147323"/>
   <BaselineCell time="2.3737166324" cumHazard="0.00399472504147323"/>
   <BaselineCell time="2.379192334" cumHazard="0.0040027805363225"/>
   <BaselineCell time="2.3846680356" cumHazard="0.0040027805363225"/>
   <BaselineCell time="2.3901437372" cumHazard="0.0040027805363225"/>
   <BaselineCell time="2.392881588" cumHazard="0.00401083995722653"/>
   <BaselineCell time="2.3956194387" cumHazard="0.00401890175634123"/>
   <BaselineCell time="2.4010951403" cumHazard="0.00403502684513182"/>
   <BaselineCell time="2.4038329911" cumHazard="0.00403502684513182"/>
   <BaselineCell time="2.4065708419" cumHazard="0.00403502684513182"/>
   <BaselineCell time="2.4093086927" cumHazard="0.00403502684513182"/>
   <BaselineCell time="2.4120465435" cumHazard="0.00403502684513182"/>
   <BaselineCell time="2.4147843943" cumHazard="0.00404309392824234"/>
   <BaselineCell time="2.417522245" cumHazard="0.00404309392824234"/>
   <BaselineCell time="2.4202600958" cumHazard="0.0040511628866341"/>
   <BaselineCell time="2.4229979466" cumHazard="0.0040511628866341"/>
   <BaselineCell time="2.4257357974" cumHazard="0.0040511628866341"/>
   <BaselineCell time="2.4284736482" cumHazard="0.00405923500629964"/>
   <BaselineCell time="2.431211499" cumHazard="0.00406730889141948"/>
   <BaselineCell time="2.4366872005" cumHazard="0.00407538362660815"/>
   <BaselineCell time="2.4421629021" cumHazard="0.00407538362660815"/>
   <BaselineCell time="2.4449007529" cumHazard="0.00407538362660815"/>
   <BaselineCell time="2.4476386037" cumHazard="0.00407538362660815"/>
   <BaselineCell time="2.4503764545" cumHazard="0.00407538362660815"/>
   <BaselineCell time="2.4531143053" cumHazard="0.00407538362660815"/>
   <BaselineCell time="2.4558521561" cumHazard="0.00408346383062559"/>
   <BaselineCell time="2.4585900068" cumHazard="0.00409154516600604"/>
   <BaselineCell time="2.4613278576" cumHazard="0.00409154516600604"/>
   <BaselineCell time="2.4640657084" cumHazard="0.00409962726248089"/>
   <BaselineCell time="2.4668035592" cumHazard="0.00410771013493092"/>
   <BaselineCell time="2.46954141" cumHazard="0.00411579392491113"/>
   <BaselineCell time="2.4722792608" cumHazard="0.00411579392491113"/>
   <BaselineCell time="2.4750171116" cumHazard="0.00411579392491113"/>
   <BaselineCell time="2.4777549624" cumHazard="0.00411579392491113"/>
   <BaselineCell time="2.4804928131" cumHazard="0.00411579392491113"/>
   <BaselineCell time="2.4832306639" cumHazard="0.00411579392491113"/>
   <BaselineCell time="2.4914442163" cumHazard="0.00412388640541668"/>
   <BaselineCell time="2.4941820671" cumHazard="0.00412388640541668"/>
   <BaselineCell time="2.4969199179" cumHazard="0.00412388640541668"/>
   <BaselineCell time="2.4996577687" cumHazard="0.00413198130905818"/>
   <BaselineCell time="2.5023956194" cumHazard="0.00414007692841388"/>
   <BaselineCell time="2.507871321" cumHazard="0.00414007692841388"/>
   <BaselineCell time="2.5106091718" cumHazard="0.00414007692841388"/>
   <BaselineCell time="2.5160848734" cumHazard="0.00414007692841388"/>
   <BaselineCell time="2.5188227242" cumHazard="0.00414817768285676"/>
   <BaselineCell time="2.5215605749" cumHazard="0.00414817768285676"/>
   <BaselineCell time="2.5242984257" cumHazard="0.00415628161985441"/>
   <BaselineCell time="2.5270362765" cumHazard="0.00415628161985441"/>
   <BaselineCell time="2.5297741273" cumHazard="0.00415628161985441"/>
   <BaselineCell time="2.5325119781" cumHazard="0.00416439328449421"/>
   <BaselineCell time="2.5352498289" cumHazard="0.00416439328449421"/>
   <BaselineCell time="2.5379876797" cumHazard="0.00416439328449421"/>
   <BaselineCell time="2.5407255305" cumHazard="0.00416439328449421"/>
   <BaselineCell time="2.546201232" cumHazard="0.00417250729725797"/>
   <BaselineCell time="2.5489390828" cumHazard="0.00417250729725797"/>
   <BaselineCell time="2.5544147844" cumHazard="0.00417250729725797"/>
   <BaselineCell time="2.5571526352" cumHazard="0.00417250729725797"/>
   <BaselineCell time="2.559890486" cumHazard="0.00417250729725797"/>
   <BaselineCell time="2.5626283368" cumHazard="0.004188749344887"/>
   <BaselineCell time="2.5653661875" cumHazard="0.00419687349539042"/>
   <BaselineCell time="2.5681040383" cumHazard="0.00419687349539042"/>
   <BaselineCell time="2.5708418891" cumHazard="0.00419687349539042"/>
   <BaselineCell time="2.5763175907" cumHazard="0.00420500287456036"/>
   <BaselineCell time="2.5790554415" cumHazard="0.00421313347908678"/>
   <BaselineCell time="2.5845311431" cumHazard="0.00421313347908678"/>
   <BaselineCell time="2.5872689938" cumHazard="0.00422126801932411"/>
   <BaselineCell time="2.5900068446" cumHazard="0.00422940497546772"/>
   <BaselineCell time="2.5927446954" cumHazard="0.00422940497546772"/>
   <BaselineCell time="2.5954825462" cumHazard="0.00423754662379068"/>
   <BaselineCell time="2.598220397" cumHazard="0.00423754662379068"/>
   <BaselineCell time="2.6009582478" cumHazard="0.00424568942716759"/>
   <BaselineCell time="2.6036960986" cumHazard="0.00425383278465593"/>
   <BaselineCell time="2.6064339493" cumHazard="0.00426197813375332"/>
   <BaselineCell time="2.6091718001" cumHazard="0.00426197813375332"/>
   <BaselineCell time="2.6119096509" cumHazard="0.00426197813375332"/>
   <BaselineCell time="2.6146475017" cumHazard="0.00427013118967919"/>
   <BaselineCell time="2.6173853525" cumHazard="0.00427013118967919"/>
   <BaselineCell time="2.6201232033" cumHazard="0.00427013118967919"/>
   <BaselineCell time="2.6228610541" cumHazard="0.00427013118967919"/>
   <BaselineCell time="2.6255989049" cumHazard="0.00427013118967919"/>
   <BaselineCell time="2.6283367556" cumHazard="0.00427828826637658"/>
   <BaselineCell time="2.6310746064" cumHazard="0.00429460646625993"/>
   <BaselineCell time="2.6338124572" cumHazard="0.00430276735100242"/>
   <BaselineCell time="2.636550308" cumHazard="0.00430276735100242"/>
   <BaselineCell time="2.6392881588" cumHazard="0.00431092897063453"/>
   <BaselineCell time="2.6420260096" cumHazard="0.00431092897063453"/>
   <BaselineCell time="2.6447638604" cumHazard="0.00431092897063453"/>
   <BaselineCell time="2.6475017112" cumHazard="0.00431092897063453"/>
   <BaselineCell time="2.6502395619" cumHazard="0.00431909334293081"/>
   <BaselineCell time="2.6529774127" cumHazard="0.00431909334293081"/>
   <BaselineCell time="2.6557152635" cumHazard="0.00431909334293081"/>
   <BaselineCell time="2.6584531143" cumHazard="0.00434359482598581"/>
   <BaselineCell time="2.6611909651" cumHazard="0.00434359482598581"/>
   <BaselineCell time="2.6639288159" cumHazard="0.00435176657462188"/>
   <BaselineCell time="2.6666666667" cumHazard="0.00437628438999337"/>
   <BaselineCell time="2.6694045175" cumHazard="0.00438445813181871"/>
   <BaselineCell time="2.6721423682" cumHazard="0.00439263240122291"/>
   <BaselineCell time="2.674880219" cumHazard="0.00439263240122291"/>
   <BaselineCell time="2.6776180698" cumHazard="0.00440080819910628"/>
   <BaselineCell time="2.6803559206" cumHazard="0.00440080819910628"/>
   <BaselineCell time="2.6830937714" cumHazard="0.00440080819910628"/>
   <BaselineCell time="2.688569473" cumHazard="0.00440080819910628"/>
   <BaselineCell time="2.6913073238" cumHazard="0.00440080819910628"/>
   <BaselineCell time="2.6940451745" cumHazard="0.00440080819910628"/>
   <BaselineCell time="2.6967830253" cumHazard="0.0044089929729922"/>
   <BaselineCell time="2.6995208761" cumHazard="0.0044089929729922"/>
   <BaselineCell time="2.7022587269" cumHazard="0.00441717909364709"/>
   <BaselineCell time="2.7049965777" cumHazard="0.00442536596987503"/>
   <BaselineCell time="2.7077344285" cumHazard="0.0044335534003906"/>
   <BaselineCell time="2.7104722793" cumHazard="0.0044335534003906"/>
   <BaselineCell time="2.71321013" cumHazard="0.0044335534003906"/>
   <BaselineCell time="2.7159479808" cumHazard="0.00444993563664651"/>
   <BaselineCell time="2.7186858316" cumHazard="0.00444993563664651"/>
   <BaselineCell time="2.7241615332" cumHazard="0.00444993563664651"/>
   <BaselineCell time="2.726899384" cumHazard="0.00444993563664651"/>
   <BaselineCell time="2.7296372348" cumHazard="0.00445813481017856"/>
   <BaselineCell time="2.7323750856" cumHazard="0.00445813481017856"/>
   <BaselineCell time="2.7351129363" cumHazard="0.00446633802402698"/>
   <BaselineCell time="2.7378507871" cumHazard="0.00446633802402698"/>
   <BaselineCell time="2.7405886379" cumHazard="0.0044827484124228"/>
   <BaselineCell time="2.7433264887" cumHazard="0.0044827484124228"/>
   <BaselineCell time="2.7460643395" cumHazard="0.0044827484124228"/>
   <BaselineCell time="2.7488021903" cumHazard="0.0044827484124228"/>
   <BaselineCell time="2.7515400411" cumHazard="0.0044827484124228"/>
   <BaselineCell time="2.7542778919" cumHazard="0.0044827484124228"/>
   <BaselineCell time="2.7570157426" cumHazard="0.0044827484124228"/>
   <BaselineCell time="2.7597535934" cumHazard="0.0044827484124228"/>
   <BaselineCell time="2.7624914442" cumHazard="0.0044827484124228"/>
   <BaselineCell time="2.765229295" cumHazard="0.0044827484124228"/>
   <BaselineCell time="2.7679671458" cumHazard="0.0044827484124228"/>
   <BaselineCell time="2.7707049966" cumHazard="0.0044827484124228"/>
   <BaselineCell time="2.7734428474" cumHazard="0.0044827484124228"/>
   <BaselineCell time="2.7761806982" cumHazard="0.00449917750415934"/>
   <BaselineCell time="2.7789185489" cumHazard="0.00449917750415934"/>
   <BaselineCell time="2.7816563997" cumHazard="0.00450739310834179"/>
   <BaselineCell time="2.7843942505" cumHazard="0.00451560920972855"/>
   <BaselineCell time="2.7871321013" cumHazard="0.00452382726810755"/>
   <BaselineCell time="2.7898699521" cumHazard="0.0045402660442731"/>
   <BaselineCell time="2.7926078029" cumHazard="0.0045402660442731"/>
   <BaselineCell time="2.7953456537" cumHazard="0.0045402660442731"/>
   <BaselineCell time="2.8008213552" cumHazard="0.00454848696268369"/>
   <BaselineCell time="2.803559206" cumHazard="0.00457316052277386"/>
   <BaselineCell time="2.8062970568" cumHazard="0.00458138706677111"/>
   <BaselineCell time="2.8090349076" cumHazard="0.00458138706677111"/>
   <BaselineCell time="2.8117727584" cumHazard="0.00458138706677111"/>
   <BaselineCell time="2.8145106092" cumHazard="0.00458138706677111"/>
   <BaselineCell time="2.81724846" cumHazard="0.00458961451926139"/>
   <BaselineCell time="2.8199863107" cumHazard="0.00459784543664726"/>
   <BaselineCell time="2.8227241615" cumHazard="0.00462254967074257"/>
   <BaselineCell time="2.8254620123" cumHazard="0.00462254967074257"/>
   <BaselineCell time="2.8309377139" cumHazard="0.00462254967074257"/>
   <BaselineCell time="2.8336755647" cumHazard="0.00462254967074257"/>
   <BaselineCell time="2.8364134155" cumHazard="0.00462254967074257"/>
   <BaselineCell time="2.8391512663" cumHazard="0.00463902720430983"/>
   <BaselineCell time="2.8446269678" cumHazard="0.00465551121023889"/>
   <BaselineCell time="2.8473648186" cumHazard="0.00465551121023889"/>
   <BaselineCell time="2.8528405202" cumHazard="0.00466375799997892"/>
   <BaselineCell time="2.855578371" cumHazard="0.00466375799997892"/>
   <BaselineCell time="2.8583162218" cumHazard="0.00466375799997892"/>
   <BaselineCell time="2.8610540726" cumHazard="0.00466375799997892"/>
   <BaselineCell time="2.8637919233" cumHazard="0.00466375799997892"/>
   <BaselineCell time="2.8665297741" cumHazard="0.00466375799997892"/>
   <BaselineCell time="2.8692676249" cumHazard="0.00467200747619912"/>
   <BaselineCell time="2.8720054757" cumHazard="0.0046802578734202"/>
   <BaselineCell time="2.8747433265" cumHazard="0.00471326987795682"/>
   <BaselineCell time="2.8774811773" cumHazard="0.00471326987795682"/>
   <BaselineCell time="2.8829568789" cumHazard="0.0047215262202674"/>
   <BaselineCell time="2.8856947296" cumHazard="0.0047215262202674"/>
   <BaselineCell time="2.8884325804" cumHazard="0.0047215262202674"/>
   <BaselineCell time="2.8911704312" cumHazard="0.00472978538626585"/>
   <BaselineCell time="2.893908282" cumHazard="0.0047463069357492"/>
   <BaselineCell time="2.8966461328" cumHazard="0.00475457081397401"/>
   <BaselineCell time="2.8993839836" cumHazard="0.00476283491170395"/>
   <BaselineCell time="2.9048596851" cumHazard="0.00477110108778554"/>
   <BaselineCell time="2.9075975359" cumHazard="0.00477110108778554"/>
   <BaselineCell time="2.9103353867" cumHazard="0.00477936977626454"/>
   <BaselineCell time="2.9158110883" cumHazard="0.0047876403483741"/>
   <BaselineCell time="2.9212867899" cumHazard="0.00479591116894774"/>
   <BaselineCell time="2.9240246407" cumHazard="0.00479591116894774"/>
   <BaselineCell time="2.9267624914" cumHazard="0.00479591116894774"/>
   <BaselineCell time="2.9295003422" cumHazard="0.00479591116894774"/>
   <BaselineCell time="2.932238193" cumHazard="0.00479591116894774"/>
   <BaselineCell time="2.9404517454" cumHazard="0.00479591116894774"/>
   <BaselineCell time="2.9431895962" cumHazard="0.00480418844387917"/>
   <BaselineCell time="2.945927447" cumHazard="0.00480418844387917"/>
   <BaselineCell time="2.9486652977" cumHazard="0.00481246658642726"/>
   <BaselineCell time="2.9541409993" cumHazard="0.00481246658642726"/>
   <BaselineCell time="2.9568788501" cumHazard="0.00482074874808622"/>
   <BaselineCell time="2.9596167009" cumHazard="0.00482074874808622"/>
   <BaselineCell time="2.9623545517" cumHazard="0.00482074874808622"/>
   <BaselineCell time="2.970568104" cumHazard="0.0048290312865257"/>
   <BaselineCell time="2.9760438056" cumHazard="0.00483731474595764"/>
   <BaselineCell time="2.9787816564" cumHazard="0.00483731474595764"/>
   <BaselineCell time="2.9815195072" cumHazard="0.00483731474595764"/>
   <BaselineCell time="2.984257358" cumHazard="0.00483731474595764"/>
   <BaselineCell time="2.9897330595" cumHazard="0.00483731474595764"/>
   <BaselineCell time="2.9924709103" cumHazard="0.00483731474595764"/>
   <BaselineCell time="2.9952087611" cumHazard="0.00487048958154304"/>
   <BaselineCell time="2.9979466119" cumHazard="0.00487048958154304"/>
   <BaselineCell time="3.0006844627" cumHazard="0.00487048958154304"/>
   <BaselineCell time="3.0034223135" cumHazard="0.00488708505381002"/>
   <BaselineCell time="3.0088980151" cumHazard="0.00488708505381002"/>
   <BaselineCell time="3.0116358658" cumHazard="0.00488708505381002"/>
   <BaselineCell time="3.0143737166" cumHazard="0.00488708505381002"/>
   <BaselineCell time="3.0171115674" cumHazard="0.00489538593954776"/>
   <BaselineCell time="3.0198494182" cumHazard="0.00489538593954776"/>
   <BaselineCell time="3.0253251198" cumHazard="0.00489538593954776"/>
   <BaselineCell time="3.0280629706" cumHazard="0.00489538593954776"/>
   <BaselineCell time="3.0308008214" cumHazard="0.00489538593954776"/>
   <BaselineCell time="3.0335386721" cumHazard="0.0049120051073623"/>
   <BaselineCell time="3.0362765229" cumHazard="0.0049120051073623"/>
   <BaselineCell time="3.0417522245" cumHazard="0.0049120051073623"/>
   <BaselineCell time="3.0444900753" cumHazard="0.00492031920648389"/>
   <BaselineCell time="3.0499657769" cumHazard="0.00492031920648389"/>
   <BaselineCell time="3.0527036277" cumHazard="0.00492031920648389"/>
   <BaselineCell time="3.0554414784" cumHazard="0.00492031920648389"/>
   <BaselineCell time="3.0581793292" cumHazard="0.00492031920648389"/>
   <BaselineCell time="3.06091718" cumHazard="0.00493695330131365"/>
   <BaselineCell time="3.0636550308" cumHazard="0.00494527150712818"/>
   <BaselineCell time="3.0663928816" cumHazard="0.00494527150712818"/>
   <BaselineCell time="3.0718685832" cumHazard="0.0049535924358082"/>
   <BaselineCell time="3.0746064339" cumHazard="0.00496191426028824"/>
   <BaselineCell time="3.0773442847" cumHazard="0.00497023824656112"/>
   <BaselineCell time="3.0800821355" cumHazard="0.00497023824656112"/>
   <BaselineCell time="3.0855578371" cumHazard="0.00497023824656112"/>
   <BaselineCell time="3.0882956879" cumHazard="0.0049868933923647"/>
   <BaselineCell time="3.0965092402" cumHazard="0.0049868933923647"/>
   <BaselineCell time="3.099247091" cumHazard="0.0049868933923647"/>
   <BaselineCell time="3.1019849418" cumHazard="0.0049868933923647"/>
   <BaselineCell time="3.1047227926" cumHazard="0.0049952267063835"/>
   <BaselineCell time="3.1101984942" cumHazard="0.00500356122265082"/>
   <BaselineCell time="3.112936345" cumHazard="0.00500356122265082"/>
   <BaselineCell time="3.1156741958" cumHazard="0.00501189691859928"/>
   <BaselineCell time="3.1184120465" cumHazard="0.00501189691859928"/>
   <BaselineCell time="3.1211498973" cumHazard="0.00502023358206967"/>
   <BaselineCell time="3.1238877481" cumHazard="0.00502023358206967"/>
   <BaselineCell time="3.1266255989" cumHazard="0.00502023358206967"/>
   <BaselineCell time="3.1293634497" cumHazard="0.00502023358206967"/>
   <BaselineCell time="3.1348391513" cumHazard="0.00503692049851781"/>
   <BaselineCell time="3.1375770021" cumHazard="0.00505361018195309"/>
   <BaselineCell time="3.1403148528" cumHazard="0.00505361018195309"/>
   <BaselineCell time="3.1430527036" cumHazard="0.0050619569124001"/>
   <BaselineCell time="3.1485284052" cumHazard="0.0050619569124001"/>
   <BaselineCell time="3.151266256" cumHazard="0.0050619569124001"/>
   <BaselineCell time="3.1540041068" cumHazard="0.00507030610558725"/>
   <BaselineCell time="3.1567419576" cumHazard="0.00507865713658711"/>
   <BaselineCell time="3.1594798084" cumHazard="0.00508700882575571"/>
   <BaselineCell time="3.1622176591" cumHazard="0.00508700882575571"/>
   <BaselineCell time="3.1649555099" cumHazard="0.00508700882575571"/>
   <BaselineCell time="3.1676933607" cumHazard="0.00508700882575571"/>
   <BaselineCell time="3.1704312115" cumHazard="0.00508700882575571"/>
   <BaselineCell time="3.1731690623" cumHazard="0.00508700882575571"/>
   <BaselineCell time="3.1759069131" cumHazard="0.00509536498918196"/>
   <BaselineCell time="3.1786447639" cumHazard="0.00509536498918196"/>
   <BaselineCell time="3.1813826146" cumHazard="0.00511208292166304"/>
   <BaselineCell time="3.189596167" cumHazard="0.00512880595459878"/>
   <BaselineCell time="3.1950718686" cumHazard="0.00512880595459878"/>
   <BaselineCell time="3.1978097194" cumHazard="0.00512880595459878"/>
   <BaselineCell time="3.2005475702" cumHazard="0.00514554274622727"/>
   <BaselineCell time="3.2032854209" cumHazard="0.00516228769867464"/>
   <BaselineCell time="3.2060232717" cumHazard="0.00516228769867464"/>
   <BaselineCell time="3.2087611225" cumHazard="0.00517903938899565"/>
   <BaselineCell time="3.2114989733" cumHazard="0.00518741700389683"/>
   <BaselineCell time="3.2142368241" cumHazard="0.00519579625169116"/>
   <BaselineCell time="3.2169746749" cumHazard="0.00519579625169116"/>
   <BaselineCell time="3.2197125257" cumHazard="0.00522094238335119"/>
   <BaselineCell time="3.2224503765" cumHazard="0.00522932677453953"/>
   <BaselineCell time="3.2251882272" cumHazard="0.00522932677453953"/>
   <BaselineCell time="3.227926078" cumHazard="0.00523771274073564"/>
   <BaselineCell time="3.2306639288" cumHazard="0.00523771274073564"/>
   <BaselineCell time="3.2334017796" cumHazard="0.00524610322184745"/>
   <BaselineCell time="3.2361396304" cumHazard="0.00525449677866937"/>
   <BaselineCell time="3.241615332" cumHazard="0.00525449677866937"/>
   <BaselineCell time="3.2470910335" cumHazard="0.00525449677866937"/>
   <BaselineCell time="3.2525667351" cumHazard="0.00525449677866937"/>
   <BaselineCell time="3.2553045859" cumHazard="0.00527129095620845"/>
   <BaselineCell time="3.2580424367" cumHazard="0.00527129095620845"/>
   <BaselineCell time="3.266255989" cumHazard="0.00527129095620845"/>
   <BaselineCell time="3.2689938398" cumHazard="0.00527969422058434"/>
   <BaselineCell time="3.2717316906" cumHazard="0.00527969422058434"/>
   <BaselineCell time="3.2772073922" cumHazard="0.00528810284502328"/>
   <BaselineCell time="3.279945243" cumHazard="0.00528810284502328"/>
   <BaselineCell time="3.2826830938" cumHazard="0.00529651418998492"/>
   <BaselineCell time="3.2854209446" cumHazard="0.00529651418998492"/>
   <BaselineCell time="3.2881587953" cumHazard="0.00530492612412386"/>
   <BaselineCell time="3.2936344969" cumHazard="0.00530492612412386"/>
   <BaselineCell time="3.2963723477" cumHazard="0.00530492612412386"/>
   <BaselineCell time="3.3018480493" cumHazard="0.00532175399467563"/>
   <BaselineCell time="3.3045859001" cumHazard="0.00533017124565593"/>
   <BaselineCell time="3.3073237509" cumHazard="0.00533017124565593"/>
   <BaselineCell time="3.3127994524" cumHazard="0.00533017124565593"/>
   <BaselineCell time="3.3155373032" cumHazard="0.00533017124565593"/>
   <BaselineCell time="3.318275154" cumHazard="0.00533017124565593"/>
   <BaselineCell time="3.3210130048" cumHazard="0.00533859252637457"/>
   <BaselineCell time="3.3237508556" cumHazard="0.00534701621954264"/>
   <BaselineCell time="3.3292265572" cumHazard="0.00535544009807539"/>
   <BaselineCell time="3.3319644079" cumHazard="0.00535544009807539"/>
   <BaselineCell time="3.3347022587" cumHazard="0.00536386471681344"/>
   <BaselineCell time="3.3374401095" cumHazard="0.00537228957594489"/>
   <BaselineCell time="3.3429158111" cumHazard="0.00538071495089438"/>
   <BaselineCell time="3.3456536619" cumHazard="0.00538071495089438"/>
   <BaselineCell time="3.3511293634" cumHazard="0.0053891449856272"/>
   <BaselineCell time="3.3538672142" cumHazard="0.00540601316498239"/>
   <BaselineCell time="3.356605065" cumHazard="0.00540601316498239"/>
   <BaselineCell time="3.3593429158" cumHazard="0.00541444814352295"/>
   <BaselineCell time="3.3648186174" cumHazard="0.00541444814352295"/>
   <BaselineCell time="3.3675564682" cumHazard="0.00542288428190681"/>
   <BaselineCell time="3.370294319" cumHazard="0.00543975785776163"/>
   <BaselineCell time="3.3730321697" cumHazard="0.00543975785776163"/>
   <BaselineCell time="3.3785078713" cumHazard="0.00544819605318669"/>
   <BaselineCell time="3.3812457221" cumHazard="0.00547351630555178"/>
   <BaselineCell time="3.3839835729" cumHazard="0.00547351630555178"/>
   <BaselineCell time="3.3867214237" cumHazard="0.00547351630555178"/>
   <BaselineCell time="3.3894592745" cumHazard="0.00547351630555178"/>
   <BaselineCell time="3.3921971253" cumHazard="0.00549041621090298"/>
   <BaselineCell time="3.3976728268" cumHazard="0.00549041621090298"/>
   <BaselineCell time="3.4004106776" cumHazard="0.00549041621090298"/>
   <BaselineCell time="3.4031485284" cumHazard="0.00549041621090298"/>
   <BaselineCell time="3.40862423" cumHazard="0.0054988699933"/>
   <BaselineCell time="3.4113620808" cumHazard="0.00551577872203871"/>
   <BaselineCell time="3.4140999316" cumHazard="0.00551577872203871"/>
   <BaselineCell time="3.4168377823" cumHazard="0.00552423468013301"/>
   <BaselineCell time="3.4195756331" cumHazard="0.00553269127117355"/>
   <BaselineCell time="3.4223134839" cumHazard="0.00553269127117355"/>
   <BaselineCell time="3.4250513347" cumHazard="0.00553269127117355"/>
   <BaselineCell time="3.4305270363" cumHazard="0.00553269127117355"/>
   <BaselineCell time="3.4332648871" cumHazard="0.00553269127117355"/>
   <BaselineCell time="3.4360027379" cumHazard="0.0055496257038403"/>
   <BaselineCell time="3.4387405886" cumHazard="0.0055496257038403"/>
   <BaselineCell time="3.4414784394" cumHazard="0.0055580938483902"/>
   <BaselineCell time="3.4442162902" cumHazard="0.00556656556472957"/>
   <BaselineCell time="3.446954141" cumHazard="0.00558351196152234"/>
   <BaselineCell time="3.4524298426" cumHazard="0.00558351196152234"/>
   <BaselineCell time="3.4606433949" cumHazard="0.00559198975538193"/>
   <BaselineCell time="3.4633812457" cumHazard="0.00560046827577107"/>
   <BaselineCell time="3.4661190965" cumHazard="0.00560046827577107"/>
   <BaselineCell time="3.4688569473" cumHazard="0.00560046827577107"/>
   <BaselineCell time="3.4715947981" cumHazard="0.00560046827577107"/>
   <BaselineCell time="3.4743326489" cumHazard="0.00560046827577107"/>
   <BaselineCell time="3.4770704997" cumHazard="0.00560046827577107"/>
   <BaselineCell time="3.4798083504" cumHazard="0.00560046827577107"/>
   <BaselineCell time="3.4825462012" cumHazard="0.00560895415373757"/>
   <BaselineCell time="3.485284052" cumHazard="0.00561744235266484"/>
   <BaselineCell time="3.4880219028" cumHazard="0.00561744235266484"/>
   <BaselineCell time="3.4907597536" cumHazard="0.00561744235266484"/>
   <BaselineCell time="3.4934976044" cumHazard="0.00563442550551732"/>
   <BaselineCell time="3.4962354552" cumHazard="0.00565141363224791"/>
   <BaselineCell time="3.498973306" cumHazard="0.00565990924180986"/>
   <BaselineCell time="3.5017111567" cumHazard="0.00565990924180986"/>
   <BaselineCell time="3.5044490075" cumHazard="0.00565990924180986"/>
   <BaselineCell time="3.5071868583" cumHazard="0.00565990924180986"/>
   <BaselineCell time="3.5099247091" cumHazard="0.00565990924180986"/>
   <BaselineCell time="3.5126625599" cumHazard="0.00569391030628116"/>
   <BaselineCell time="3.5154004107" cumHazard="0.00569391030628116"/>
   <BaselineCell time="3.5181382615" cumHazard="0.00569391030628116"/>
   <BaselineCell time="3.5208761123" cumHazard="0.00569391030628116"/>
   <BaselineCell time="3.5290896646" cumHazard="0.00569391030628116"/>
   <BaselineCell time="3.5318275154" cumHazard="0.0057024201827458"/>
   <BaselineCell time="3.5345653662" cumHazard="0.0057024201827458"/>
   <BaselineCell time="3.537303217" cumHazard="0.0057109314775423"/>
   <BaselineCell time="3.5400410678" cumHazard="0.00572796385858723"/>
   <BaselineCell time="3.5455167693" cumHazard="0.00572796385858723"/>
   <BaselineCell time="3.5482546201" cumHazard="0.00573648112762135"/>
   <BaselineCell time="3.5509924709" cumHazard="0.00574499995632311"/>
   <BaselineCell time="3.5537303217" cumHazard="0.00575351960618108"/>
   <BaselineCell time="3.5592060233" cumHazard="0.00576204073695076"/>
   <BaselineCell time="3.5619438741" cumHazard="0.00577056586416032"/>
   <BaselineCell time="3.5646817248" cumHazard="0.00577056586416032"/>
   <BaselineCell time="3.5674195756" cumHazard="0.00577909530266993"/>
   <BaselineCell time="3.5701574264" cumHazard="0.00580468830790141"/>
   <BaselineCell time="3.5728952772" cumHazard="0.00580468830790141"/>
   <BaselineCell time="3.575633128" cumHazard="0.00580468830790141"/>
   <BaselineCell time="3.5783709788" cumHazard="0.00580468830790141"/>
   <BaselineCell time="3.5811088296" cumHazard="0.00582175810766337"/>
   <BaselineCell time="3.5838466804" cumHazard="0.00582175810766337"/>
   <BaselineCell time="3.5865845311" cumHazard="0.00583883371809293"/>
   <BaselineCell time="3.5893223819" cumHazard="0.00583883371809293"/>
   <BaselineCell time="3.5920602327" cumHazard="0.0058473760949538"/>
   <BaselineCell time="3.5947980835" cumHazard="0.0058473760949538"/>
   <BaselineCell time="3.5975359343" cumHazard="0.00586446434503131"/>
   <BaselineCell time="3.6002737851" cumHazard="0.00586446434503131"/>
   <BaselineCell time="3.6084873374" cumHazard="0.00586446434503131"/>
   <BaselineCell time="3.6112251882" cumHazard="0.00586446434503131"/>
   <BaselineCell time="3.613963039" cumHazard="0.00587301585108483"/>
   <BaselineCell time="3.6167008898" cumHazard="0.00588156843445587"/>
   <BaselineCell time="3.6194387406" cumHazard="0.00588156843445587"/>
   <BaselineCell time="3.6221765914" cumHazard="0.00589868087844116"/>
   <BaselineCell time="3.6249144422" cumHazard="0.00591579555005925"/>
   <BaselineCell time="3.627652293" cumHazard="0.00593291223574078"/>
   <BaselineCell time="3.6303901437" cumHazard="0.00593291223574078"/>
   <BaselineCell time="3.6331279945" cumHazard="0.00593291223574078"/>
   <BaselineCell time="3.6358658453" cumHazard="0.00593291223574078"/>
   <BaselineCell time="3.6413415469" cumHazard="0.00594147266183404"/>
   <BaselineCell time="3.6440793977" cumHazard="0.00595003364667823"/>
   <BaselineCell time="3.6468172485" cumHazard="0.00595003364667823"/>
   <BaselineCell time="3.65229295" cumHazard="0.00595003364667823"/>
   <BaselineCell time="3.6550308008" cumHazard="0.00596715839444067"/>
   <BaselineCell time="3.6632443532" cumHazard="0.00596715839444067"/>
   <BaselineCell time="3.665982204" cumHazard="0.00597572478953014"/>
   <BaselineCell time="3.6687200548" cumHazard="0.00597572478953014"/>
   <BaselineCell time="3.6741957563" cumHazard="0.00598429193044978"/>
   <BaselineCell time="3.6769336071" cumHazard="0.00598429193044978"/>
   <BaselineCell time="3.6796714579" cumHazard="0.00600142674229644"/>
   <BaselineCell time="3.6824093087" cumHazard="0.00601856450029875"/>
   <BaselineCell time="3.6851471595" cumHazard="0.0060271353650458"/>
   <BaselineCell time="3.6906228611" cumHazard="0.0060271353650458"/>
   <BaselineCell time="3.6933607118" cumHazard="0.0060271353650458"/>
   <BaselineCell time="3.6960985626" cumHazard="0.0060271353650458"/>
   <BaselineCell time="3.6988364134" cumHazard="0.00603571538708263"/>
   <BaselineCell time="3.7015742642" cumHazard="0.00603571538708263"/>
   <BaselineCell time="3.7070499658" cumHazard="0.00604430005524051"/>
   <BaselineCell time="3.7097878166" cumHazard="0.00604430005524051"/>
   <BaselineCell time="3.7125256674" cumHazard="0.00605288944544955"/>
   <BaselineCell time="3.7152635181" cumHazard="0.00606148116224038"/>
   <BaselineCell time="3.7180013689" cumHazard="0.00607007335968624"/>
   <BaselineCell time="3.7207392197" cumHazard="0.00607866608083884"/>
   <BaselineCell time="3.7234770705" cumHazard="0.00608726160915672"/>
   <BaselineCell time="3.7262149213" cumHazard="0.00609585982907758"/>
   <BaselineCell time="3.7316906229" cumHazard="0.0061044586391048"/>
   <BaselineCell time="3.7344284736" cumHazard="0.00611305943085289"/>
   <BaselineCell time="3.7371663244" cumHazard="0.00612166042610979"/>
   <BaselineCell time="3.742642026" cumHazard="0.00612166042610979"/>
   <BaselineCell time="3.7453798768" cumHazard="0.00613026279290424"/>
   <BaselineCell time="3.7481177276" cumHazard="0.00613026279290424"/>
   <BaselineCell time="3.7535934292" cumHazard="0.00614748010379793"/>
   <BaselineCell time="3.7563312799" cumHazard="0.00614748010379793"/>
   <BaselineCell time="3.7590691307" cumHazard="0.00614748010379793"/>
   <BaselineCell time="3.7618069815" cumHazard="0.00614748010379793"/>
   <BaselineCell time="3.7645448323" cumHazard="0.00615609152342272"/>
   <BaselineCell time="3.7700205339" cumHazard="0.00616470653302404"/>
   <BaselineCell time="3.7727583847" cumHazard="0.00617332233601677"/>
   <BaselineCell time="3.7754962355" cumHazard="0.00617332233601677"/>
   <BaselineCell time="3.780971937" cumHazard="0.00617332233601677"/>
   <BaselineCell time="3.7837097878" cumHazard="0.00619056095697374"/>
   <BaselineCell time="3.7864476386" cumHazard="0.00619056095697374"/>
   <BaselineCell time="3.7891854894" cumHazard="0.00619918113558096"/>
   <BaselineCell time="3.7919233402" cumHazard="0.00620780559266628"/>
   <BaselineCell time="3.794661191" cumHazard="0.00620780559266628"/>
   <BaselineCell time="3.7973990418" cumHazard="0.00622506949527454"/>
   <BaselineCell time="3.8001368925" cumHazard="0.00622506949527454"/>
   <BaselineCell time="3.8028747433" cumHazard="0.00623370388513673"/>
   <BaselineCell time="3.8056125941" cumHazard="0.00624234136149964"/>
   <BaselineCell time="3.8083504449" cumHazard="0.00624234136149964"/>
   <BaselineCell time="3.8110882957" cumHazard="0.00625962294073189"/>
   <BaselineCell time="3.8138261465" cumHazard="0.00626826537328492"/>
   <BaselineCell time="3.8165639973" cumHazard="0.00627690970032814"/>
   <BaselineCell time="3.8220396988" cumHazard="0.00628555556210378"/>
   <BaselineCell time="3.8247775496" cumHazard="0.00628555556210378"/>
   <BaselineCell time="3.8275154004" cumHazard="0.00629420295277648"/>
   <BaselineCell time="3.8302532512" cumHazard="0.00629420295277648"/>
   <BaselineCell time="3.8357289528" cumHazard="0.00631150332830343"/>
   <BaselineCell time="3.8384668036" cumHazard="0.00632015418351454"/>
   <BaselineCell time="3.8412046543" cumHazard="0.00633745793360673"/>
   <BaselineCell time="3.8439425051" cumHazard="0.00633745793360673"/>
   <BaselineCell time="3.8466803559" cumHazard="0.0063461133709191"/>
   <BaselineCell time="3.8494182067" cumHazard="0.0063461133709191"/>
   <BaselineCell time="3.8521560575" cumHazard="0.0063461133709191"/>
   <BaselineCell time="3.8576317591" cumHazard="0.00635477025162108"/>
   <BaselineCell time="3.8631074606" cumHazard="0.00636343033176253"/>
   <BaselineCell time="3.8658453114" cumHazard="0.00637209172859749"/>
   <BaselineCell time="3.8685831622" cumHazard="0.00637209172859749"/>
   <BaselineCell time="3.871321013" cumHazard="0.00637209172859749"/>
   <BaselineCell time="3.8740588638" cumHazard="0.00638075588241689"/>
   <BaselineCell time="3.8767967146" cumHazard="0.00638942288105998"/>
   <BaselineCell time="3.8795345654" cumHazard="0.00640675888401815"/>
   <BaselineCell time="3.8822724162" cumHazard="0.00641542796023619"/>
   <BaselineCell time="3.8877481177" cumHazard="0.00641542796023619"/>
   <BaselineCell time="3.8959616701" cumHazard="0.00643276953535077"/>
   <BaselineCell time="3.8986995209" cumHazard="0.00643276953535077"/>
   <BaselineCell time="3.9014373717" cumHazard="0.00643276953535077"/>
   <BaselineCell time="3.9041752225" cumHazard="0.00644144403260942"/>
   <BaselineCell time="3.909650924" cumHazard="0.00645011951172856"/>
   <BaselineCell time="3.9123887748" cumHazard="0.00645011951172856"/>
   <BaselineCell time="3.9151266256" cumHazard="0.00646747629523596"/>
   <BaselineCell time="3.9178644764" cumHazard="0.00648483754056897"/>
   <BaselineCell time="3.9206023272" cumHazard="0.00650220450305339"/>
   <BaselineCell time="3.9288158795" cumHazard="0.00651088911974773"/>
   <BaselineCell time="3.9315537303" cumHazard="0.00651088911974773"/>
   <BaselineCell time="3.9370294319" cumHazard="0.00651088911974773"/>
   <BaselineCell time="3.9452429843" cumHazard="0.00651088911974773"/>
   <BaselineCell time="3.947980835" cumHazard="0.00651088911974773"/>
   <BaselineCell time="3.9507186858" cumHazard="0.00651088911974773"/>
   <BaselineCell time="3.9534565366" cumHazard="0.00651088911974773"/>
   <BaselineCell time="3.9561943874" cumHazard="0.00651088911974773"/>
   <BaselineCell time="3.9589322382" cumHazard="0.0065369705074909"/>
   <BaselineCell time="3.961670089" cumHazard="0.00654566599437293"/>
   <BaselineCell time="3.9644079398" cumHazard="0.00655436512646611"/>
   <BaselineCell time="3.9671457906" cumHazard="0.006563064586515"/>
